/* Species # 001         : (size= 003) (AvfFit= 9.000) (Age= 79.000)  */
/*-------------------------------------------------------------------*/
/* Organism # 000 Fitness:  0.000 Error:  0.000                      */
genomestart  0
trait 1 0.1 0.0019724638381621532 5.451446050362243E-4 0.0 0.0 0.0 0.003560820058939723 0.005287564185436807 
trait 2 0.5076345041126049 0.46938571174137744 0.9550649377001107 0.0 0.6403654177628644 0.17176151610285129 0.0 0.0 
trait 3 0.7239208441236422 0.4561448708809762 0.05305540504812101 0.0 0.8112020687308813 1.2096166788136635 0.7448768273793079 0.0 
node 1 1 1 1
node 2 3 1 1
node 3 1 1 3
node 4 1 0 2
gene  2 1 4 31.244705373985887 0 1.0 31.244705373985887 1
gene  1 2 4 25.85629934120633 0 2.0 25.85629934120633 1
gene  3 3 4 -15.211041691375334 0 3.0 -15.211041691375334 1
genomeend 0
/* Organism # 001 Fitness:  0.000 Error:  0.000                      */
genomestart  1
trait 1 0.1 0.0019724638381621532 5.451446050362243E-4 0.0 0.0 0.0 0.003560820058939723 0.005287564185436807 
trait 2 0.5076345041126049 0.46938571174137744 0.9550649377001107 0.0 0.6403654177628644 0.17176151610285129 0.0 0.0 
trait 3 0.7239208441236422 0.4561448708809762 0.05305540504812101 0.0 0.8112020687308813 1.2096166788136635 0.7448768273793079 0.0 
node 1 1 1 1
node 2 3 1 1
node 3 1 1 3
node 4 1 0 2
gene  2 1 4 28.804348645237706 0 1.0 28.804348645237706 1
gene  1 2 4 28.315245908735786 0 2.0 28.315245908735786 1
gene  3 3 4 -14.605106507219778 0 3.0 -14.605106507219778 1
genomeend 1
/* Organism # 002 Fitness:  0.000 Error:  0.000                      */
genomestart  2
trait 1 0.1 0.0019724638381621532 5.451446050362243E-4 0.0 0.0 0.0 0.003560820058939723 0.005287564185436807 
trait 2 0.5076345041126049 0.46938571174137744 0.9550649377001107 0.0 0.6403654177628644 0.17176151610285129 0.0 0.0 
trait 3 0.7239208441236422 0.4561448708809762 0.05305540504812101 0.0 0.8112020687308813 1.2096166788136635 0.7448768273793079 0.0 
node 1 1 1 1
node 2 3 1 1
node 3 3 1 3
node 4 1 0 2
gene  2 1 4 29.38558749129971 0 1.0 29.38558749129971 1
gene  1 2 4 29.137051931746598 0 2.0 29.137051931746598 1
gene  3 3 4 -15.422724876442473 0 3.0 -15.422724876442473 1
genomeend 2
/*-------------------------------------------------------------------*/
/* Species # 002         : (size= 005) (AvfFit= 9.000) (Age= 76.000)  */
/*-------------------------------------------------------------------*/
/* Organism # 003 Fitness:  0.000 Error:  0.000                      */
genomestart  3
trait 1 0.26187840618385716 0.0 0.0 0.0 0.0 0.28726061368234423 0.07830348960210914 0.04667346097480306 
trait 2 0.2 0.07449674303680953 0.16327182057013134 0.0 0.0 0.9510371168726605 0.0 0.0 
trait 3 0.0375 0.8543180435284771 0.0 0.0 0.0 0.5137040172244332 0.0 0.44911253913976434 
node 1 2 1 1
node 2 1 1 1
node 3 1 1 3
node 4 3 0 2
node 9 1 0 0
node 10 2 0 0
gene  3 1 4 22.795897480848144 0 1.0 22.795897480848144 1
gene  2 2 4 -1.2388561273352816 0 2.0 -1.2388561273352816 1
gene  3 3 4 0.7713610466667893 0 3.0 0.7713610466667893 1
gene  1 1 9 -1.8930331244973255 0 12.0 -1.8930331244973255 1
gene  1 9 4 2.0562856430351846 0 13.0 2.0562856430351846 1
gene  1 1 10 -3.481688092690537 0 14.0 -3.481688092690537 1
gene  1 10 4 -11.066049984330538 0 15.0 -11.066049984330538 1
gene  1 2 10 -0.3713843799331825 0 20.0 -0.3713843799331825 1
gene  1 3 9 1.187696043827955 0 49.0 1.187696043827955 1
gene  3 9 10 2.2436736180118624 0 71.0 2.2436736180118624 1
gene  2 3 10 5.622806552906075 0 345.0 5.622806552906075 1
gene  3 2 9 6.545242323533098 0 723.0 6.545242323533098 1
genomeend 3
/* Organism # 004 Fitness:  0.000 Error:  0.000                      */
genomestart  4
trait 1 0.26187840618385716 0.32053898127766123 0.0 0.1455633336387221 0.0 0.587725294869876 0.0 0.0713991796721316 
trait 2 0.2 0.07449674303680953 0.16327182057013134 0.0 0.0 0.9510371168726605 0.0 0.0 
trait 3 0.0375 0.8543180435284771 0.0 0.0 0.0 0.5137040172244332 0.0 0.44911253913976434 
node 1 2 1 1
node 2 1 1 1
node 3 1 1 3
node 4 3 0 2
node 9 1 0 0
node 10 2 0 0
gene  3 1 4 20.35254122948141 0 1.0 20.35254122948141 1
gene  2 2 4 32.14394585060108 0 2.0 32.14394585060108 1
gene  3 3 4 1.4275305378009047 0 3.0 1.4275305378009047 1
gene  1 1 9 -5.737590730160962 0 12.0 -5.737590730160962 1
gene  1 9 4 0.8931238570528413 0 13.0 0.8931238570528413 1
gene  1 1 10 -0.61761520952199 0 14.0 -0.61761520952199 1
gene  1 10 4 -8.890127448197306 0 15.0 -8.890127448197306 1
gene  1 2 10 -0.24780825811532425 0 20.0 -0.24780825811532425 1
gene  1 3 9 -2.950670154574871 0 49.0 -2.950670154574871 1
gene  3 9 10 -1.1004517823412128 0 71.0 -1.1004517823412128 1
gene  2 3 10 6.920257747169614 0 345.0 6.920257747169614 1
gene  3 2 9 5.079443613476806 0 723.0 5.079443613476806 1
genomeend 4
/* Organism # 005 Fitness:  0.000 Error:  0.000                      */
genomestart  5
trait 1 0.26187840618385716 0.0 0.0 0.0 0.0 0.28726061368234423 0.07830348960210914 0.04667346097480306 
trait 2 0.2 0.07449674303680953 0.16327182057013134 0.0 0.0 0.9510371168726605 0.0 0.0 
trait 3 0.0375 0.8543180435284771 0.0 0.0 0.0 0.5137040172244332 0.0 0.44911253913976434 
node 1 2 1 1
node 2 1 1 1
node 3 1 1 3
node 4 3 0 2
node 9 1 0 0
node 10 2 0 0
gene  3 1 4 18.997274177845522 0 1.0 18.997274177845522 1
gene  3 2 4 31.546095899726463 0 2.0 31.546095899726463 1
gene  3 3 4 2.8426220401336297 0 3.0 2.8426220401336297 1
gene  1 1 9 -5.305105800070135 0 12.0 -5.305105800070135 1
gene  1 9 4 0.8099202665893495 0 13.0 0.8099202665893495 1
gene  1 1 10 -1.3425824577495484 0 14.0 -1.3425824577495484 1
gene  1 10 4 -12.183828324642075 0 15.0 -12.183828324642075 1
gene  1 2 10 -2.0182765241375344 0 20.0 -2.0182765241375344 1
gene  1 3 9 -5.029078498148797 0 49.0 -5.029078498148797 1
gene  3 9 10 0.28591503519737216 0 71.0 0.28591503519737216 1
gene  2 3 10 1.4578709900114446 0 345.0 1.4578709900114446 1
gene  3 2 9 6.050860622342146 0 723.0 6.050860622342146 1
genomeend 5
/* Organism # 006 Fitness:  0.000 Error:  0.000                      */
genomestart  6
trait 1 0.26187840618385716 0.0 0.2523970903632423 0.0 0.0 0.28726061368234423 0.0 0.9118240449201749 
trait 2 0.2 0.07449674303680953 0.16327182057013134 0.0 0.0 0.9510371168726605 0.0 0.0 
trait 3 0.0375 0.8543180435284771 0.0 0.0 0.0 0.5137040172244332 0.0 0.44911253913976434 
node 1 2 1 1
node 2 1 1 1
node 3 1 1 3
node 4 3 0 2
node 9 1 0 0
node 10 2 0 0
gene  3 1 4 23.51347007880982 0 1.0 23.51347007880982 1
gene  2 2 4 31.341220510717623 0 2.0 31.341220510717623 1
gene  3 3 4 1.4623423248482381 0 3.0 1.4623423248482381 1
gene  1 1 9 -2.558158409341933 0 12.0 -2.558158409341933 1
gene  1 9 4 0.32901364487541707 0 13.0 0.32901364487541707 1
gene  1 1 10 -2.1775346097960937 0 14.0 -2.1775346097960937 1
gene  1 10 4 2.4770192059363403 0 15.0 2.4770192059363403 1
gene  1 2 10 0.3796264287583848 0 20.0 0.3796264287583848 1
gene  1 3 9 -1.2719422746141718 0 49.0 -1.2719422746141718 1
gene  3 9 10 -0.32937981258024107 0 71.0 -0.32937981258024107 1
gene  2 3 10 1.506125936980042 0 345.0 1.506125936980042 1
gene  3 2 9 3.9010050810014447 0 723.0 3.9010050810014447 1
genomeend 6
/* Organism # 007 Fitness:  0.000 Error:  0.000                      */
genomestart  7
trait 1 0.26187840618385716 0.0 0.0 0.0 0.0 0.28726061368234423 0.07830348960210914 0.04667346097480306 
trait 2 0.2 0.07449674303680953 0.16327182057013134 0.0 0.0 0.9510371168726605 0.0 0.0 
trait 3 0.0375 0.8543180435284771 0.0 0.0 0.0 0.5137040172244332 0.0 0.44911253913976434 
node 1 2 1 1
node 2 1 1 1
node 3 1 1 3
node 4 3 0 2
node 9 1 0 0
node 10 2 0 0
gene  3 1 4 18.721542916476878 0 1.0 18.721542916476878 1
gene  2 2 4 29.545328192737273 0 2.0 29.545328192737273 1
gene  3 3 4 0.5624568701564713 0 3.0 0.5624568701564713 1
gene  1 1 9 -5.735192726533224 0 12.0 -5.735192726533224 1
gene  1 9 4 0.06847918119226604 0 13.0 0.06847918119226604 1
gene  1 1 10 -2.517442619821524 0 14.0 -2.517442619821524 1
gene  1 10 4 -13.058090724441179 0 15.0 -13.058090724441179 1
gene  1 2 10 -0.8000337170762775 0 20.0 -0.8000337170762775 1
gene  1 3 9 -4.646430413375854 0 49.0 -4.646430413375854 1
gene  3 9 10 0.24696663621418619 0 71.0 0.24696663621418619 1
gene  2 3 10 1.9671714996339573 0 345.0 1.9671714996339573 1
gene  3 2 9 4.5318552226069855 0 723.0 4.5318552226069855 1
genomeend 7
/*-------------------------------------------------------------------*/
/* Species # 003         : (size= 002) (AvfFit= 4.000) (Age= 75.000)  */
/*-------------------------------------------------------------------*/
/* Organism # 008 Fitness:  0.000 Error:  0.000                      */
genomestart  8
trait 1 0.08001938402691691 0.0 0.26354960444849507 1.130265544360257 0.0 0.02061813667196685 0.0 0.009334692194960612 
trait 2 0.2 0.0 0.0 0.0 0.0 0.0 0.0 0.0 
trait 3 0.3 0.022424066426958347 0.021904764913579806 0.0 0.0 0.0 0.0 0.024067794444303764 
node 1 1 1 1
node 2 1 1 1
node 3 1 1 3
node 4 1 0 2
node 10 1 0 0
node 16 3 0 0
gene  1 1 4 0.21262795683572505 0 1.0 0.21262795683572505 1
gene  2 2 4 -2.513713273927346 0 2.0 -2.513713273927346 1
gene  3 3 4 -4.960110776384901 0 3.0 -4.960110776384901 1
gene  1 1 10 -3.9365550607557402 0 14.0 -3.9365550607557402 1
gene  3 10 4 -2.242891627214117 0 15.0 -2.242891627214117 1
gene  3 2 10 3.641110079495739 0 20.0 3.641110079495739 1
gene  3 2 16 -11.218108552002116 0 31.0 -11.218108552002116 1
gene  3 16 10 -0.20430442677564775 0 32.0 -0.20430442677564775 1
gene  1 16 4 -3.327826142297488 0 38.0 -3.327826142297488 1
gene  1 1 16 -3.451614653342534 0 869.0 -3.451614653342534 1
gene  2 3 16 0.16015888958564117 0 1176.0 0.16015888958564117 1
genomeend 8
/* Organism # 009 Fitness:  0.000 Error:  0.000                      */
genomestart  9
trait 1 0.08001938402691691 0.0 0.26354960444849507 1.130265544360257 0.0 0.02061813667196685 0.0 0.009334692194960612 
trait 2 0.2 0.0 0.0 0.0 0.0 0.0 0.0 0.0 
trait 3 0.3 0.022424066426958347 0.021904764913579806 0.0 0.0 0.0 0.0 0.024067794444303764 
node 1 1 1 1
node 2 1 1 1
node 3 1 1 3
node 4 1 0 2
node 10 1 0 0
node 16 3 0 0
gene  1 1 4 -2.592880354442153 0 1.0 -2.592880354442153 1
gene  2 2 4 -3.901711704552084 0 2.0 -3.901711704552084 1
gene  3 3 4 -1.7662389807366734 0 3.0 -1.7662389807366734 1
gene  1 1 10 -5.851483189060652 0 14.0 -5.851483189060652 1
gene  3 10 4 16.48074085523777 0 15.0 16.48074085523777 1
gene  3 2 10 0.13732392506114555 0 20.0 0.13732392506114555 1
gene  3 2 16 -10.470970049024704 0 31.0 -10.470970049024704 1
gene  3 16 10 -3.3070237564016436 0 32.0 -3.3070237564016436 1
gene  1 16 4 -4.506979102801985 0 38.0 -4.506979102801985 1
gene  1 1 16 0.7685629496900779 0 869.0 0.7685629496900779 1
gene  2 3 16 -1.7396681035125323 0 1176.0 -1.7396681035125323 1
genomeend 9
/*-------------------------------------------------------------------*/
/* Species # 004         : (size= 003) (AvfFit= 6.540) (Age= 74.000)  */
/*-------------------------------------------------------------------*/
/* Organism # 010 Fitness:  0.000 Error:  0.000                      */
genomestart  10
trait 1 0.0 0.003369625723527012 0.0 0.0 0.0 0.08633844731386117 0.9344749473352804 0.0 
trait 2 0.17324827240280538 0.0 0.0 0.0 0.0 0.0 0.5659493842754622 0.0 
trait 3 0.34812594041785705 0.4871243156081778 0.46238929579702326 0.44406539445144266 0.7087458804145564 0.12036597693020001 0.0 0.5552643949973587 
node 1 1 1 1
node 2 1 1 1
node 3 1 1 3
node 4 2 0 2
node 9 1 0 0
gene  1 1 4 21.856303199784023 0 1.0 21.856303199784023 1
gene  1 2 4 21.181029759988053 0 2.0 21.181029759988053 1
gene  3 3 4 -12.059990545073454 0 3.0 -12.059990545073454 1
gene  2 1 9 6.125766213524448 0 12.0 6.125766213524448 1
gene  1 9 4 3.0933454265656377 0 13.0 3.0933454265656377 1
gene  2 2 9 -3.4353805071673027 0 36.0 -3.4353805071673027 1
gene  3 3 9 -5.593314782165733 0 213.0 -5.593314782165733 1
genomeend 10
/* Organism # 011 Fitness:  0.000 Error:  0.000                      */
genomestart  11
trait 1 0.0 0.003369625723527012 0.0 0.0 0.0 0.08633844731386117 0.9344749473352804 0.0 
trait 2 0.17324827240280538 0.0 0.0 0.0 0.0 0.0 0.5659493842754622 0.0 
trait 3 0.34812594041785705 0.4871243156081778 0.46238929579702326 0.44406539445144266 0.7087458804145564 0.12036597693020001 0.0 0.5552643949973587 
node 1 1 1 1
node 2 1 1 1
node 3 1 1 3
node 4 2 0 2
node 9 1 0 0
gene  1 1 4 21.338304234400834 0 1.0 21.338304234400834 1
gene  1 2 4 18.724809101762492 0 2.0 18.724809101762492 1
gene  3 3 4 -13.312305055616468 0 3.0 -13.312305055616468 1
gene  2 1 9 6.996172692812995 0 12.0 6.996172692812995 1
gene  1 9 4 2.952419529411576 0 13.0 2.952419529411576 1
gene  2 2 9 -2.708848694026782 0 36.0 -2.708848694026782 1
gene  3 3 9 -7.975551368147446 0 213.0 -7.975551368147446 1
genomeend 11
/* Organism # 012 Fitness:  0.000 Error:  0.000                      */
genomestart  12
trait 1 0.0 0.003369625723527012 0.0 0.0 0.0 0.08633844731386117 0.9344749473352804 0.0 
trait 2 0.17324827240280538 0.0 0.0 0.0 0.0 0.0 0.5659493842754622 0.0 
trait 3 0.34812594041785705 0.4871243156081778 0.46238929579702326 0.44406539445144266 0.7087458804145564 0.12036597693020001 0.0 0.5552643949973587 
node 1 1 1 1
node 2 1 1 1
node 3 1 1 3
node 4 2 0 2
node 9 1 0 0
gene  1 1 4 22.4585080172425 0 1.0 22.4585080172425 1
gene  1 2 4 1.9898584650855664 0 2.0 1.9898584650855664 1
gene  3 3 4 0.2884322485020313 0 3.0 0.2884322485020313 1
gene  2 1 9 2.0851487382426224 0 12.0 2.0851487382426224 1
gene  1 9 4 3.2017877673593724 0 13.0 3.2017877673593724 1
gene  2 2 9 -1.3149855490074933 0 36.0 -1.3149855490074933 1
gene  3 3 9 1.0429376022554548 0 213.0 1.0429376022554548 1
genomeend 12
/*-------------------------------------------------------------------*/
/* Species # 005         : (size= 004) (AvfFit= 8.429) (Age= 74.000)  */
/*-------------------------------------------------------------------*/
/* Organism # 013 Fitness:  0.000 Error:  0.000                      */
genomestart  13
trait 1 0.5649862247388342 0.0 0.8752259428610568 0.0 0.0 0.0 0.0 0.0 
trait 2 0.9210088345813483 0.0 0.06684251109705575 0.7136922648733537 0.6841095364523575 0.12542470758414215 0.0 0.9339047103463167 
trait 3 0.24344119018446603 0.0 0.0390051344877681 0.3933575366980547 0.08264810546800316 0.20891265520525676 0.0 0.0 
node 1 1 1 1
node 2 1 1 1
node 3 3 1 3
node 4 1 0 2
node 10 3 0 0
node 11 1 0 0
node 212 1 0 0
node 306 1 0 0
node 318 1 0 0
gene  1 1 4 -3.313263841955147 0 1.0 -3.313263841955147 0
gene  2 2 4 -1.415971788045879 0 2.0 -1.415971788045879 0
gene  3 3 4 5.014626304074865 0 3.0 5.014626304074865 1
gene  1 1 10 -3.4001175663898398 0 14.0 -3.4001175663898398 1
gene  1 10 4 1.8262522593934079 0 15.0 1.8262522593934079 1
gene  2 2 11 -0.44085563043176207 0 16.0 -0.44085563043176207 1
gene  2 11 4 -13.132486645392495 0 17.0 -13.132486645392495 1
gene  2 1 11 -11.075882119065811 0 85.0 -11.075882119065811 1
gene  1 11 10 0.5799022101046947 0 109.0 0.5799022101046947 1
gene  2 10 212 0.43227864053674236 0 957.0 0.43227864053674236 1
gene  1 212 4 -1.393326300367823 0 958.0 -1.393326300367823 1
gene  1 1 306 1.0 0 1344.0 0.0 1
gene  1 306 4 -3.313263841955147 0 1345.0 0.0 1
gene  2 2 318 1.0 0 1392.0 0.0 1
gene  2 318 4 -1.415971788045879 0 1393.0 0.0 1
genomeend 13
/* Organism # 014 Fitness:  0.000 Error:  0.000                      */
genomestart  14
trait 1 0.5649862247388342 0.0 0.8752259428610568 0.0 0.0 0.0 0.0 0.0 
trait 2 0.9210088345813483 0.0 0.06684251109705575 0.7136922648733537 0.6841095364523575 0.12542470758414215 0.0 0.9339047103463167 
trait 3 0.24344119018446603 0.0 0.0390051344877681 0.3933575366980547 0.08264810546800316 0.20891265520525676 0.0 0.0 
node 1 1 1 1
node 2 1 1 1
node 3 3 1 3
node 4 2 0 2
node 10 3 0 0
node 11 1 0 0
node 212 1 0 0
node 306 1 0 0
gene  1 1 4 -7.241039448590089 0 1.0 -7.241039448590089 0
gene  2 2 4 -1.8547060341556612 0 2.0 -1.8547060341556612 1
gene  3 3 4 7.280536883844999 0 3.0 7.280536883844999 1
gene  1 1 10 -4.348355340293753 0 14.0 -4.348355340293753 1
gene  1 10 4 2.9155795445142814 0 15.0 2.9155795445142814 1
gene  2 2 11 -0.672580165224687 0 16.0 -0.672580165224687 1
gene  2 11 4 -12.619542338044774 0 17.0 -12.619542338044774 1
gene  2 1 11 -7.21484683827493 0 85.0 -7.21484683827493 1
gene  1 11 10 -3.1728611951857766 0 109.0 -3.1728611951857766 1
gene  2 10 212 0.06749793503015827 0 957.0 0.06749793503015827 1
gene  1 212 4 -2.4408074398618838 0 958.0 -2.4408074398618838 1
gene  1 1 306 1.0376868392815135 0 1344.0 1.0376868392815135 1
gene  1 306 4 -4.918198499674978 0 1345.0 -4.918198499674978 1
genomeend 14
/* Organism # 015 Fitness:  0.000 Error:  0.000                      */
genomestart  15
trait 1 0.5649862247388342 0.0 0.8752259428610568 0.0 0.0 0.0 0.0 0.0 
trait 2 0.9210088345813483 0.0 0.06684251109705575 0.7136922648733537 0.6841095364523575 0.12542470758414215 0.0 0.9339047103463167 
trait 3 0.24344119018446603 0.0 0.0390051344877681 0.3933575366980547 0.08264810546800316 0.20891265520525676 0.0 0.0 
node 1 1 1 1
node 2 1 1 1
node 3 3 1 3
node 4 2 0 2
node 10 3 0 0
node 11 1 0 0
node 212 1 0 0
node 306 1 0 0
gene  1 1 4 -4.57868976148108 0 1.0 -4.57868976148108 0
gene  2 2 4 -0.715079536791848 0 2.0 -0.715079536791848 1
gene  3 3 4 5.821445596968302 0 3.0 5.821445596968302 1
gene  1 1 10 -5.015025748704096 0 14.0 -5.015025748704096 1
gene  1 10 4 -0.16368811408819317 0 15.0 -0.16368811408819317 1
gene  2 2 11 -2.544323951528752 0 16.0 -2.544323951528752 1
gene  2 11 4 -12.745349894020189 0 17.0 -12.745349894020189 1
gene  2 1 11 -7.344130701162798 0 85.0 -7.344130701162798 1
gene  1 11 10 0.8125735371082463 0 109.0 0.8125735371082463 1
gene  2 10 212 0.5456448104085138 0 957.0 0.5456448104085138 1
gene  1 212 4 -0.18637565522013622 0 958.0 -0.18637565522013622 1
gene  1 1 306 -0.10057982709389357 0 1344.0 -0.10057982709389357 1
gene  1 306 4 1.259235337210889 0 1345.0 1.259235337210889 1
genomeend 15
/* Organism # 016 Fitness:  0.000 Error:  0.000                      */
genomestart  16
trait 1 0.5649862247388342 0.0 0.8752259428610568 0.0 0.0 0.0 0.0 0.0 
trait 2 0.9210088345813483 0.0 0.06684251109705575 0.7136922648733537 0.6841095364523575 0.12542470758414215 0.0 0.9339047103463167 
trait 3 0.24344119018446603 0.0 0.0390051344877681 0.3933575366980547 0.08264810546800316 0.20891265520525676 0.0 0.0 
node 1 1 1 1
node 2 1 1 1
node 3 3 1 3
node 4 2 0 2
node 10 3 0 0
node 11 1 0 0
node 212 1 0 0
node 306 1 0 0
gene  1 1 4 -2.6260357702435453 0 1.0 -2.6260357702435453 0
gene  2 2 4 -0.07671925721891093 0 2.0 -0.07671925721891093 1
gene  3 3 4 6.458069444639708 0 3.0 6.458069444639708 1
gene  1 1 10 -4.08627300470374 0 14.0 -4.08627300470374 1
gene  1 10 4 -0.07754975098599859 0 15.0 -0.07754975098599859 1
gene  2 2 11 -1.8327185741912755 0 16.0 -1.8327185741912755 1
gene  2 11 4 -13.718506909731834 0 17.0 -13.718506909731834 1
gene  2 1 11 -7.211875206087125 0 85.0 -7.211875206087125 1
gene  1 11 10 -2.7540771180831216 0 109.0 -2.7540771180831216 1
gene  2 10 212 0.9828204901007462 0 957.0 0.9828204901007462 1
gene  1 212 4 -3.546861253620533 0 958.0 -3.546861253620533 1
gene  1 1 306 -0.4379748766672551 0 1344.0 -0.4379748766672551 1
gene  1 306 4 -2.4646798732553776 0 1345.0 -2.4646798732553776 1
genomeend 16
/*-------------------------------------------------------------------*/
/* Species # 006         : (size= 003) (AvfFit= 6.280) (Age= 73.000)  */
/*-------------------------------------------------------------------*/
/* Organism # 017 Fitness:  0.000 Error:  0.000                      */
genomestart  17
trait 1 0.0 0.8189591167787955 0.0 0.27667251622234457 0.0 0.0 0.0 0.38208790727290753 
trait 2 0.1349402990981175 0.0 0.0 0.0 0.08539524207324992 0.758834041959135 0.05100688314218267 0.0 
trait 3 0.0 0.35976860344531336 0.8855616352897188 0.6174568737939711 1.365497588503116 0.0 0.1327141872306956 0.0 
node 1 1 1 1
node 2 3 1 1
node 3 1 1 3
node 4 1 0 2
node 10 1 0 0
node 11 1 0 0
node 17 1 0 0
node 181 1 0 0
node 222 3 0 0
node 254 3 0 0
gene  1 1 4 6.416506442297251 0 1.0 6.416506442297251 1
gene  2 2 4 17.304093621095127 0 2.0 17.304093621095127 1
gene  3 3 4 -1.058095482009481 0 3.0 -1.058095482009481 1
gene  1 1 10 -3.234889445046921 0 14.0 -3.234889445046921 1
gene  3 10 4 -0.6478214293712248 0 15.0 -0.6478214293712248 1
gene  2 2 11 0.29598971557988274 0 16.0 0.29598971557988274 1
gene  2 11 4 -1.6129969988385948 0 17.0 -1.6129969988385948 1
gene  1 1 17 0.8180673523774197 0 33.0 0.8180673523774197 1
gene  1 17 10 1.040011543500649 0 34.0 1.040011543500649 1
gene  2 3 10 2.9701749688790664 0 122.0 2.9701749688790664 1
gene  3 3 17 -4.1826011749788705 0 468.0 -4.1826011749788705 1
gene  3 17 4 -0.193486522333429 0 517.0 -0.193486522333429 1
gene  2 10 11 -3.3091361583912464 0 586.0 -3.3091361583912464 1
gene  1 1 181 -0.4689747250804528 0 820.0 -0.4689747250804528 1
gene  1 181 4 0.8076328322739683 0 821.0 0.8076328322739683 1
gene  2 17 181 1.9484434049581445 0 852.0 1.9484434049581445 1
gene  3 3 11 -0.8193073394578656 0 947.0 -0.8193073394578656 1
gene  1 1 222 -3.721345977261562 0 988.0 -3.721345977261562 1
gene  1 222 17 -1.4502247317193349 0 989.0 -1.4502247317193349 1
gene  3 2 17 1.9417268798896041 0 1007.0 1.9417268798896041 1
gene  3 2 254 0.6998722508532966 0 1120.0 0.6998722508532966 1
gene  3 254 17 -0.4456930243382669 0 1121.0 -0.4456930243382669 1
gene  2 181 11 0.6773841557259188 0 1200.0 0.6773841557259188 1
gene  3 254 181 -0.6104981540335106 0 1296.0 -0.6104981540335106 1
gene  3 222 254 4.425165796313363 0 1357.0 4.425165796313363 1
genomeend 17
/* Organism # 018 Fitness:  0.000 Error:  0.000                      */
genomestart  18
trait 1 0.0 0.8189591167787955 0.0 0.27667251622234457 0.0 0.831623875040492 0.0 0.6497692641055154 
trait 2 0.1349402990981175 0.0 0.0 0.0 0.08539524207324992 0.758834041959135 0.05100688314218267 0.0 
trait 3 0.0 0.35976860344531336 0.8855616352897188 0.6174568737939711 1.365497588503116 0.0 0.1327141872306956 0.0 
node 1 1 1 1
node 2 3 1 1
node 3 1 1 3
node 4 1 0 2
node 10 1 0 0
node 11 1 0 0
node 17 1 0 0
node 181 1 0 0
node 222 3 0 0
node 254 3 0 0
gene  1 1 4 3.713108090418727 0 1.0 3.713108090418727 1
gene  2 2 4 19.939641357141817 0 2.0 19.939641357141817 1
gene  3 3 4 0.11819500694028573 0 3.0 0.11819500694028573 1
gene  1 1 10 -1.32887288936336 0 14.0 -1.32887288936336 1
gene  3 10 4 0.21344704123414576 0 15.0 0.21344704123414576 1
gene  2 2 11 1.0415537866275377 0 16.0 1.0415537866275377 1
gene  2 11 4 -3.734792047300543 0 17.0 -3.734792047300543 1
gene  1 1 17 0.24211902003217745 0 33.0 0.24211902003217745 1
gene  1 17 10 2.5795440266266234 0 34.0 2.5795440266266234 1
gene  2 3 10 3.4113516825796766 0 122.0 3.4113516825796766 1
gene  3 3 17 -4.473731148427627 0 468.0 -4.473731148427627 1
gene  3 17 4 2.6602319814160014 0 517.0 2.6602319814160014 1
gene  2 10 11 -2.306318098688548 0 586.0 -2.306318098688548 1
gene  1 1 181 -2.793917723482405 0 820.0 -2.793917723482405 1
gene  1 181 4 -0.5899927909123043 0 821.0 -0.5899927909123043 1
gene  2 17 181 0.6023467477854658 0 852.0 0.6023467477854658 1
gene  3 3 11 -1.0187400428286713 0 947.0 -1.0187400428286713 1
gene  1 1 222 -4.0430906628310375 0 988.0 -4.0430906628310375 1
gene  1 222 17 2.2820625602295923 0 989.0 2.2820625602295923 1
gene  3 2 17 0.15834680080952523 0 1007.0 0.15834680080952523 1
gene  3 2 254 3.428295128230073 0 1120.0 3.428295128230073 1
gene  3 254 17 -0.1576710151436425 0 1121.0 -0.1576710151436425 1
gene  2 181 11 -1.5172225812904596 0 1200.0 -1.5172225812904596 1
gene  3 254 181 -0.42060826059075296 0 1296.0 -0.42060826059075296 1
gene  3 222 254 4.225299445607156 0 1357.0 4.225299445607156 1
genomeend 18
/* Organism # 019 Fitness:  0.000 Error:  0.000                      */
genomestart  19
trait 1 0.0 0.8189591167787955 0.0 0.27667251622234457 0.0 0.0 0.0 0.38208790727290753 
trait 2 0.1349402990981175 0.0 0.0 0.0 0.08539524207324992 0.758834041959135 0.05100688314218267 0.0 
trait 3 0.0 0.35976860344531336 0.8855616352897188 0.6174568737939711 1.365497588503116 0.0 0.1327141872306956 0.0 
node 1 1 1 1
node 2 3 1 1
node 3 1 1 3
node 4 1 0 2
node 10 1 0 0
node 11 1 0 0
node 17 1 0 0
node 181 1 0 0
node 222 3 0 0
node 254 3 0 0
gene  1 1 4 2.5369234529095817 0 1.0 2.5369234529095817 1
gene  2 2 4 17.988321287135445 0 2.0 17.988321287135445 1
gene  3 3 4 -0.38137957959051727 0 3.0 -0.38137957959051727 1
gene  1 1 10 -1.659198042102655 0 14.0 -1.659198042102655 1
gene  3 10 4 -0.024207343942889425 0 15.0 -0.024207343942889425 1
gene  2 2 11 1.7900135500282914 0 16.0 1.7900135500282914 1
gene  2 11 4 -4.635850795320564 0 17.0 -4.635850795320564 1
gene  1 1 17 2.3264747479287857 0 33.0 2.3264747479287857 1
gene  1 17 10 2.3694987638668654 0 34.0 2.3694987638668654 1
gene  2 3 10 3.843886529749303 0 122.0 3.843886529749303 1
gene  3 3 17 -1.124822322173544 0 468.0 -1.124822322173544 1
gene  3 17 4 0.481603903720672 0 517.0 0.481603903720672 1
gene  2 10 11 -5.470074227968544 0 586.0 -5.470074227968544 1
gene  1 1 181 -0.055988487622482264 0 820.0 -0.055988487622482264 1
gene  1 181 4 1.4742784332190495 0 821.0 1.4742784332190495 1
gene  2 17 181 1.1165420315272119 0 852.0 1.1165420315272119 1
gene  3 3 11 -0.7150263375151309 0 947.0 -0.7150263375151309 1
gene  1 1 222 -2.6202331170508977 0 988.0 -2.6202331170508977 1
gene  1 222 17 0.3845011780144598 0 989.0 0.3845011780144598 1
gene  3 2 17 2.05155927641336 0 1007.0 2.05155927641336 1
gene  3 2 254 4.43545617111562 0 1120.0 4.43545617111562 1
gene  3 254 17 1.4317795676506375 0 1121.0 1.4317795676506375 1
gene  2 181 11 1.079775568482483 0 1200.0 1.079775568482483 1
gene  3 254 181 0.7886958534874543 0 1296.0 0.7886958534874543 1
gene  3 222 254 5.95087037881558 0 1357.0 5.95087037881558 1
genomeend 19
/*-------------------------------------------------------------------*/
/* Species # 007         : (size= 002) (AvfFit= 4.000) (Age= 73.000)  */
/*-------------------------------------------------------------------*/
/* Organism # 020 Fitness:  0.000 Error:  0.000                      */
genomestart  20
trait 1 0.1 0.005259903568432409 0.0014537189467632647 0.0 0.0 0.0824725466878674 0.3666409159780828 0.0 
trait 2 1.0269300519151956 0.0 0.0 0.594634596441693 0.0 0.0 0.0 0.0 
trait 3 0.3 0.5932380523305295 0.0 0.0 0.0 0.309288658381604 0.8487150757913489 0.0 
node 1 3 1 1
node 2 1 1 1
node 3 3 1 3
node 4 1 0 2
node 9 1 0 0
node 19 1 0 0
gene  1 1 4 -3.045062390936999 0 1.0 -3.045062390936999 1
gene  2 2 4 1.534125566056652 0 2.0 1.534125566056652 1
gene  3 3 4 20.232272884537814 0 3.0 20.232272884537814 1
gene  1 1 9 -4.409443032833568 0 12.0 -4.409443032833568 1
gene  3 9 4 -19.980891763281118 0 13.0 -19.980891763281118 1
gene  2 3 9 0.9902747094679072 0 35.0 0.9902747094679072 1
gene  2 2 19 2.325625724862559 0 43.0 2.325625724862559 1
gene  2 19 4 4.3247388585348405 0 44.0 4.3247388585348405 1
gene  3 3 19 -2.7350606695090542 0 55.0 -2.7350606695090542 1
gene  2 19 9 -6.089041645597977 0 74.0 -6.089041645597977 1
gene  3 1 19 0.028866828012671375 0 139.0 0.028866828012671375 1
gene  3 2 9 -2.4603354402854456 0 147.0 -2.4603354402854456 1
genomeend 20
/* Organism # 021 Fitness:  0.000 Error:  0.000                      */
genomestart  21
trait 1 0.1 0.005259903568432409 0.0014537189467632647 0.0 0.0 0.0824725466878674 0.3666409159780828 0.0 
trait 2 1.0269300519151956 0.0 0.0 0.594634596441693 0.0 0.0 0.0 0.0 
trait 3 0.3 0.5932380523305295 0.0 0.0 0.0 0.309288658381604 0.8487150757913489 0.0 
node 1 1 1 1
node 2 1 1 1
node 3 3 1 3
node 4 1 0 2
node 9 1 0 0
node 19 1 0 0
gene  1 1 4 0.37029769631907516 0 1.0 0.37029769631907516 1
gene  2 2 4 1.7119340721865974 0 2.0 1.7119340721865974 1
gene  3 3 4 19.75161028340142 0 3.0 19.75161028340142 1
gene  1 1 9 -3.4871697882416344 0 12.0 -3.4871697882416344 1
gene  3 9 4 -20.442268188713182 0 13.0 -20.442268188713182 1
gene  2 3 9 -2.093815749106887 0 35.0 -2.093815749106887 1
gene  2 2 19 3.8991949283534195 0 43.0 3.8991949283534195 1
gene  2 19 4 6.808504411260325 0 44.0 6.808504411260325 1
gene  3 3 19 -2.3069498368655608 0 55.0 -2.3069498368655608 1
gene  2 19 9 -6.890662650746372 0 74.0 -6.890662650746372 1
gene  3 1 19 3.697532017324664 0 139.0 3.697532017324664 1
gene  3 2 9 -0.6090062218368936 0 147.0 -0.6090062218368936 1
genomeend 21
/*-------------------------------------------------------------------*/
/* Species # 009         : (size= 004) (AvfFit= 7.765) (Age= 72.000)  */
/*-------------------------------------------------------------------*/
/* Organism # 022 Fitness:  0.000 Error:  0.000                      */
genomestart  22
trait 1 0.0 0.0 0.0 0.0 0.004883655345679139 0.7072983331496162 0.0 0.0 
trait 2 0.2 0.0 0.0 0.0 0.0 0.0 0.0 0.0 
trait 3 0.3 0.0 0.0 0.0 0.770540275933125 0.4011792346238754 0.0 0.0 
node 1 2 1 1
node 2 1 1 1
node 3 1 1 3
node 4 2 0 2
node 10 3 0 0
node 11 3 0 0
node 17 1 0 0
node 23 1 0 0
node 54 1 0 0
node 59 1 0 0
node 120 1 0 0
node 195 1 0 0
node 314 1 0 0
gene  3 1 4 2.787172919612205 0 1.0 2.787172919612205 1
gene  2 2 4 9.927673034181005 0 2.0 9.927673034181005 0
gene  3 3 4 0.8854528795271581 0 3.0 0.8854528795271581 1
gene  1 1 10 0.7076195952247089 0 14.0 0.7076195952247089 1
gene  1 10 4 1.7004980546882726 0 15.0 1.7004980546882726 1
gene  1 2 11 -3.957479966738112 0 16.0 -3.957479966738112 1
gene  2 11 4 -1.8745277493612287 0 17.0 -1.8745277493612287 1
gene  1 1 17 -1.265353051949552 0 33.0 -1.265353051949552 1
gene  1 17 10 4.892705766881922 0 34.0 4.892705766881922 1
gene  2 2 23 -6.6398996623037405 0 62.0 -6.6398996623037405 1
gene  2 23 4 -14.266334173563925 0 63.0 -14.266334173563925 1
gene  3 1 23 -12.005177666793411 0 90.0 -12.005177666793411 1
gene  3 17 11 -6.802347775903513 0 117.0 -6.802347775903513 1
gene  2 23 17 2.9421621176009185 0 170.0 2.9421621176009185 1
gene  1 3 11 -2.1949153931752985 0 216.0 -2.1949153931752985 1
gene  1 1 54 0.22257441383916876 0 231.0 0.22257441383916876 1
gene  1 54 17 -19.473671782530694 0 232.0 -19.473671782530694 1
gene  3 17 59 -3.3192531368001155 0 253.0 -3.3192531368001155 1
gene  3 59 11 0.7917903649625202 0 254.0 0.7917903649625202 1
gene  2 2 54 5.425512140451538 0 402.0 5.425512140451538 1
gene  3 1 120 3.339342747198694 0 561.0 3.339342747198694 1
gene  3 120 23 3.1604099962825964 0 562.0 3.1604099962825964 1
gene  1 23 11 -0.23618416904023065 0 591.0 -0.23618416904023065 1
gene  1 54 11 0.34488220015939375 0 638.0 0.34488220015939375 1
gene  3 1 195 1.5970249148548827 0 881.0 1.5970249148548827 1
gene  3 195 120 1.899554441340939 0 882.0 1.899554441340939 1
gene  2 2 314 1.0 0 1379.0 1.0 1
gene  2 314 4 7.2827524816913085 0 1380.0 7.2827524816913085 1
genomeend 22
/* Organism # 023 Fitness:  0.000 Error:  0.000                      */
genomestart  23
trait 1 0.0 0.0 0.0 0.0 0.004883655345679139 0.7072983331496162 0.0 0.0 
trait 2 0.2 0.0 0.0 0.0 0.0 0.0 0.0 0.0 
trait 3 0.3 0.0 0.0 0.0 0.770540275933125 0.4011792346238754 0.0 0.0 
node 1 2 1 1
node 2 1 1 1
node 3 1 1 3
node 4 2 0 2
node 10 3 0 0
node 11 3 0 0
node 17 1 0 0
node 23 1 0 0
node 54 1 0 0
node 59 1 0 0
node 120 1 0 0
node 195 1 0 0
node 314 3 0 0
gene  3 1 4 2.154667366283248 0 1.0 2.154667366283248 1
gene  2 2 4 9.812430995680552 0 2.0 9.812430995680552 0
gene  3 3 4 4.1164616353248515 0 3.0 4.1164616353248515 1
gene  1 1 10 4.548435585467722 0 14.0 4.548435585467722 1
gene  1 10 4 -1.1752726036714203 0 15.0 -1.1752726036714203 1
gene  1 2 11 -2.0039031043259405 0 16.0 -2.0039031043259405 1
gene  2 11 4 -5.077145080008549 0 17.0 -5.077145080008549 1
gene  1 1 17 -4.285984919216385 0 33.0 -4.285984919216385 1
gene  1 17 10 5.349891794014087 0 34.0 5.349891794014087 1
gene  2 2 23 -6.1434467780838355 0 62.0 -6.1434467780838355 1
gene  2 23 4 -12.814762189610796 0 63.0 -12.814762189610796 1
gene  3 1 23 -12.437718032675875 0 90.0 -12.437718032675875 1
gene  3 17 11 -5.3239795258790235 0 117.0 -5.3239795258790235 1
gene  2 23 17 5.386196587816664 0 170.0 5.386196587816664 1
gene  1 3 11 -1.6289593024272484 0 216.0 -1.6289593024272484 1
gene  1 1 54 0.9694321176898155 0 231.0 0.9694321176898155 1
gene  1 54 17 -23.414295692343945 0 232.0 -23.414295692343945 1
gene  3 17 59 -3.185557473089981 0 253.0 -3.185557473089981 1
gene  3 59 11 2.3228531447303795 0 254.0 2.3228531447303795 1
gene  2 2 54 6.80552132742074 0 402.0 6.80552132742074 1
gene  3 1 120 5.458051117563903 0 561.0 5.458051117563903 1
gene  3 120 23 4.3479107213692085 0 562.0 4.3479107213692085 1
gene  1 23 11 2.442035896912911 0 591.0 2.442035896912911 1
gene  1 54 11 1.7667488620786698 0 638.0 1.7667488620786698 1
gene  3 1 195 1.754070067824332 0 881.0 1.754070067824332 1
gene  3 195 120 -2.197795822512296 0 882.0 -2.197795822512296 1
gene  2 2 314 2.9509730004141788 0 1379.0 2.9509730004141788 1
gene  2 314 4 10.157163335150331 0 1380.0 10.157163335150331 1
genomeend 23
/* Organism # 024 Fitness:  0.000 Error:  0.000                      */
genomestart  24
trait 1 0.0 0.0 0.0 0.0 0.004883655345679139 0.7072983331496162 0.0 0.0 
trait 2 0.2 0.0 0.0 0.0 0.0 0.0 0.0 0.0 
trait 3 0.3 0.0 0.0 0.0 0.770540275933125 0.4011792346238754 0.0 0.0 
node 1 2 1 1
node 2 1 1 1
node 3 1 1 3
node 4 2 0 2
node 10 3 0 0
node 11 3 0 0
node 17 1 0 0
node 23 1 0 0
node 54 1 0 0
node 59 1 0 0
node 120 1 0 0
node 195 1 0 0
node 314 1 0 0
gene  3 1 4 3.432899702840019 0 1.0 3.432899702840019 1
gene  2 2 4 8.277894100125247 0 2.0 8.277894100125247 0
gene  3 3 4 2.696372656111167 0 3.0 2.696372656111167 1
gene  1 1 10 2.5599526739331724 0 14.0 2.5599526739331724 1
gene  1 10 4 -0.11619589177306766 0 15.0 -0.11619589177306766 1
gene  1 2 11 -1.6257078111192964 0 16.0 -1.6257078111192964 1
gene  2 11 4 -2.86346699698088 0 17.0 -2.86346699698088 1
gene  1 1 17 -2.042754279814605 0 33.0 -2.042754279814605 1
gene  1 17 10 3.9122914575196432 0 34.0 3.9122914575196432 1
gene  2 2 23 -6.77945505316944 0 62.0 -6.77945505316944 1
gene  2 23 4 -13.189387322707521 0 63.0 -13.189387322707521 1
gene  3 1 23 -13.5117862820198 0 90.0 -13.5117862820198 1
gene  3 17 11 -6.395061394143711 0 117.0 -6.395061394143711 1
gene  2 23 17 5.053941801685145 0 170.0 5.053941801685145 1
gene  1 3 11 -3.112824329917358 0 216.0 -3.112824329917358 1
gene  1 1 54 -1.3192906237372997 0 231.0 -1.3192906237372997 1
gene  1 54 17 -21.732980769675798 0 232.0 -21.732980769675798 1
gene  3 17 59 -5.5584031653093495 0 253.0 -5.5584031653093495 1
gene  3 59 11 1.9734834428046035 0 254.0 1.9734834428046035 1
gene  2 2 54 6.179574050775035 0 402.0 6.179574050775035 1
gene  3 1 120 4.783857815285555 0 561.0 4.783857815285555 1
gene  3 120 23 2.532668985343649 0 562.0 2.532668985343649 1
gene  1 23 11 1.0068870845662263 0 591.0 1.0068870845662263 1
gene  1 54 11 0.8148120120938118 0 638.0 0.8148120120938118 1
gene  3 1 195 -0.3430923592176729 0 881.0 -0.3430923592176729 1
gene  3 195 120 2.5501381935832454 0 882.0 2.5501381935832454 1
gene  2 2 314 1.0 0 1379.0 0.0 1
gene  2 314 4 8.277894100125247 0 1380.0 0.0 1
gene  2 314 23 -4.620354474617918 0 1404.0 -4.620354474617918 1
genomeend 24
/* Organism # 025 Fitness:  0.000 Error:  0.000                      */
genomestart  25
trait 1 0.0 0.0 0.0 0.0 0.004883655345679139 0.7072983331496162 0.0 0.0 
trait 2 0.2 0.0 0.0 0.0 0.0 0.0 0.0 0.0 
trait 3 0.3 0.0 0.0 0.0 0.770540275933125 0.4011792346238754 0.0 0.0 
node 1 2 1 1
node 2 1 1 1
node 3 1 1 3
node 4 2 0 2
node 10 3 0 0
node 11 3 0 0
node 17 1 0 0
node 23 1 0 0
node 54 1 0 0
node 59 1 0 0
node 120 1 0 0
node 195 1 0 0
node 314 1 0 0
gene  3 1 4 5.122098112255949 0 1.0 5.122098112255949 1
gene  2 2 4 8.682884952065534 0 2.0 8.682884952065534 0
gene  3 3 4 0.6891546520105614 0 3.0 0.6891546520105614 1
gene  1 1 10 1.472733385163473 0 14.0 1.472733385163473 1
gene  1 10 4 1.3382458481076773 0 15.0 1.3382458481076773 1
gene  1 2 11 -3.8385655507510634 0 16.0 -3.8385655507510634 1
gene  2 11 4 -4.028613996095329 0 17.0 -4.028613996095329 1
gene  1 1 17 -2.9166061534170007 0 33.0 -2.9166061534170007 1
gene  1 17 10 4.992489889584041 0 34.0 4.992489889584041 1
gene  2 2 23 -9.261151536040334 0 62.0 -9.261151536040334 1
gene  2 23 4 -12.04423162592921 0 63.0 -12.04423162592921 1
gene  3 1 23 -11.092574337305468 0 90.0 -11.092574337305468 1
gene  3 17 11 -4.108156966665825 0 117.0 -4.108156966665825 1
gene  2 23 17 5.6879015532503345 0 170.0 5.6879015532503345 1
gene  1 3 11 -0.8170969761545113 0 216.0 -0.8170969761545113 1
gene  1 1 54 -0.4092806632090835 0 231.0 -0.4092806632090835 1
gene  1 54 17 -20.53199575651203 0 232.0 -20.53199575651203 1
gene  3 17 59 -3.1034450061859014 0 253.0 -3.1034450061859014 1
gene  3 59 11 -0.21248472142676134 0 254.0 -0.21248472142676134 1
gene  2 2 54 6.497078647777485 0 402.0 6.497078647777485 1
gene  3 1 120 2.426663093468785 0 561.0 2.426663093468785 1
gene  3 120 23 1.6680063369016798 0 562.0 1.6680063369016798 1
gene  1 23 11 -1.3315680814772128 0 591.0 -1.3315680814772128 1
gene  1 54 11 0.8148120120938118 0 638.0 0.8148120120938118 1
gene  3 1 195 -1.921343527823659 0 881.0 -1.921343527823659 1
gene  3 195 120 4.639649316080394 0 882.0 4.639649316080394 1
gene  2 2 314 1.0 0 1379.0 1.0 1
gene  2 314 4 8.277894100125247 0 1380.0 8.277894100125247 1
genomeend 25
/*-------------------------------------------------------------------*/
/* Species # 010         : (size= 002) (AvfFit= 4.000) (Age= 72.000)  */
/*-------------------------------------------------------------------*/
/* Organism # 026 Fitness:  0.000 Error:  0.000                      */
genomestart  26
trait 1 0.15287900622175865 0.0 0.5270992088969901 0.6098646878557921 0.24924815004022477 0.0412362733439337 0.0 0.0137103291613484 
trait 2 0.4900634100088834 0.6885673258380939 0.0 0.0 0.15288516718562095 0.3402024979698338 0.05023035318204205 1.7382989317983562 
trait 3 0.7404902086511651 0.0 0.0 0.4088713277216959 0.0 0.0 0.019398906052963738 0.0 
node 1 3 1 1
node 2 1 1 1
node 3 1 1 3
node 4 1 0 2
node 9 1 0 0
node 10 1 0 0
node 16 1 0 0
node 21 2 0 0
gene  1 1 4 -1.3558850993978502 0 1.0 -1.3558850993978502 1
gene  2 2 4 0.8056903879599053 0 2.0 0.8056903879599053 1
gene  3 3 4 -5.865406843772586 0 3.0 -5.865406843772586 1
gene  1 1 9 2.0014457319477383 0 12.0 2.0014457319477383 1
gene  1 1 10 7.336637688598566 0 14.0 7.336637688598566 1
gene  1 10 4 -8.697529645101346 0 15.0 -8.697529645101346 1
gene  3 2 10 -4.245482117418973 0 20.0 -4.245482117418973 1
gene  1 2 16 1.7243076226685474 0 31.0 1.7243076226685474 1
gene  3 16 10 -0.6116002842322789 0 32.0 -0.6116002842322789 1
gene  3 1 21 5.250240004912722 0 53.0 5.250240004912722 1
gene  1 21 9 -2.738249410827616 0 54.0 -2.738249410827616 1
gene  1 3 9 -0.6488331404725085 0 118.0 -0.6488331404725085 1
gene  1 4 21 -0.4478275532869527 0 192.0 -0.4478275532869527 1
gene  2 4 9 -2.315827937806464 0 259.0 -2.315827937806464 1
gene  3 2 21 -4.46475869164054 0 465.0 -4.46475869164054 1
gene  1 16 9 -3.129810323016421 0 750.0 -3.129810323016421 1
gene  3 16 4 2.7991729517408004 0 1056.0 2.7991729517408004 1
gene  1 3 16 1.5371368737368722 0 1321.0 1.5371368737368722 1
genomeend 26
/* Organism # 027 Fitness:  0.000 Error:  0.000                      */
genomestart  27
trait 1 0.15287900622175865 0.0 0.5270992088969901 0.6098646878557921 0.24924815004022477 0.0412362733439337 0.0 0.0137103291613484 
trait 2 0.4900634100088834 0.6885673258380939 0.0 0.0 0.15288516718562095 0.3402024979698338 0.05023035318204205 1.7382989317983562 
trait 3 0.7404902086511651 0.0 0.0 0.4088713277216959 0.0 0.0 0.019398906052963738 0.0 
node 1 3 1 1
node 2 1 1 1
node 3 1 1 3
node 4 1 0 2
node 9 1 0 0
node 10 1 0 0
node 16 1 0 0
node 21 2 0 0
gene  1 1 4 -3.1960606798054405 0 1.0 -3.1960606798054405 1
gene  2 2 4 -0.17316922251333577 0 2.0 -0.17316922251333577 1
gene  3 3 4 -6.209049697903456 0 3.0 -6.209049697903456 1
gene  1 1 9 0.9362613483871463 0 12.0 0.9362613483871463 1
gene  1 1 10 7.3934885113353515 0 14.0 7.3934885113353515 1
gene  1 10 4 -7.682454129350477 0 15.0 -7.682454129350477 1
gene  3 2 10 -2.9671905777513303 0 20.0 -2.9671905777513303 1
gene  1 2 16 -0.5787317439475559 0 31.0 -0.5787317439475559 1
gene  3 16 10 1.5821927252689765 0 32.0 1.5821927252689765 1
gene  3 1 21 6.729160875849319 0 53.0 6.729160875849319 1
gene  1 21 9 -0.5940635983354943 0 54.0 -0.5940635983354943 1
gene  1 3 9 -0.05644977270061091 0 118.0 -0.05644977270061091 1
gene  1 4 21 -0.10822128133793124 0 192.0 -0.10822128133793124 1
gene  2 4 9 -0.09927696252521967 0 259.0 -0.09927696252521967 1
gene  3 2 21 -4.537526003921746 0 465.0 -4.537526003921746 1
gene  1 16 9 -2.724534534766672 0 750.0 -2.724534534766672 1
gene  3 16 4 2.7991729517408004 0 1056.0 2.7991729517408004 1
gene  1 3 16 1.5371368737368722 0 1321.0 1.5371368737368722 1
genomeend 27
/*-------------------------------------------------------------------*/
/* Species # 012         : (size= 005) (AvfFit= 9.000) (Age= 70.000)  */
/*-------------------------------------------------------------------*/
/* Organism # 028 Fitness:  0.000 Error:  0.000                      */
genomestart  28
trait 1 0.1 0.005259903568432409 0.0014537189467632647 0.47386833211710466 0.0 0.0 0.009495520157172595 0.01410017116116482 
trait 2 0.2 0.8123024294128814 0.5789595527849658 0.0 0.0 0.0 0.0 0.0 
trait 3 0.3 0.1256849167657712 0.0 0.0 0.0 0.7303354628455622 0.2636387643072562 0.0 
node 1 1 1 1
node 2 3 1 1
node 3 1 1 3
node 4 3 0 2
node 27 2 0 0
gene  1 1 4 28.375127672053534 0 1.0 28.375127672053534 1
gene  2 2 4 -23.30243617574333 0 2.0 -23.30243617574333 1
gene  3 3 4 -15.920745138953956 0 3.0 -15.920745138953956 1
gene  3 2 27 9.227416719964605 0 78.0 9.227416719964605 1
gene  3 27 4 -0.3781921648037305 0 79.0 -0.3781921648037305 1
gene  3 3 27 1.9109372623513008 0 779.0 1.9109372623513008 1
gene  3 1 27 2.4032017226305946 0 890.0 2.4032017226305946 1
genomeend 28
/* Organism # 029 Fitness:  0.000 Error:  0.000                      */
genomestart  29
trait 1 0.1 0.005259903568432409 0.0014537189467632647 0.47386833211710466 0.0 0.0 0.009495520157172595 0.01410017116116482 
trait 2 0.2 0.8123024294128814 0.5789595527849658 0.0 0.0 0.0 0.0 0.0 
trait 3 0.3 0.1256849167657712 0.0 0.0 0.0 0.7303354628455622 0.2636387643072562 0.0 
node 1 1 1 1
node 2 3 1 1
node 3 1 1 3
node 4 3 0 2
node 27 2 0 0
gene  1 1 4 24.7970244613196 0 1.0 24.7970244613196 1
gene  2 2 4 -24.142355991398993 0 2.0 -24.142355991398993 1
gene  3 3 4 -12.566453103026815 0 3.0 -12.566453103026815 1
gene  3 2 27 7.9946473899172235 0 78.0 7.9946473899172235 1
gene  3 27 4 3.787266300354272 0 79.0 3.787266300354272 1
gene  3 3 27 2.4360911401126892 0 779.0 2.4360911401126892 1
gene  3 1 27 3.2259331652279566 0 890.0 3.2259331652279566 1
genomeend 29
/* Organism # 030 Fitness:  0.000 Error:  0.000                      */
genomestart  30
trait 1 0.1 0.005259903568432409 0.0014537189467632647 0.47386833211710466 0.0 0.0 0.009495520157172595 0.01410017116116482 
trait 2 0.2 0.8123024294128814 0.5789595527849658 0.0 0.0 0.0 0.0 0.0 
trait 3 0.3 0.1256849167657712 0.0 0.0 0.0 0.7303354628455622 0.2636387643072562 0.0 
node 1 1 1 1
node 2 3 1 1
node 3 1 1 3
node 4 3 0 2
node 27 2 0 0
gene  1 1 4 27.55991078660192 0 1.0 27.55991078660192 1
gene  2 2 4 -26.045205353316966 0 2.0 -26.045205353316966 1
gene  3 3 4 -15.756094365699433 0 3.0 -15.756094365699433 1
gene  3 2 27 8.378987808375776 0 78.0 8.378987808375776 1
gene  3 27 4 1.8085869734481423 0 79.0 1.8085869734481423 1
gene  3 3 27 6.1896440923283365 0 779.0 6.1896440923283365 1
gene  3 1 27 -0.7453071797745883 0 890.0 -0.7453071797745883 1
genomeend 30
/* Organism # 031 Fitness:  0.000 Error:  0.000                      */
genomestart  31
trait 1 0.1 0.005259903568432409 0.0014537189467632647 0.47386833211710466 0.0 0.0 0.009495520157172595 0.01410017116116482 
trait 2 0.2 0.8123024294128814 0.5789595527849658 0.0 0.0 0.0 0.0 0.0 
trait 3 0.3 0.1256849167657712 0.0 0.0 0.0 0.7303354628455622 0.2636387643072562 0.0 
node 1 1 1 1
node 2 3 1 1
node 3 1 1 3
node 4 3 0 2
node 27 2 0 0
gene  1 1 4 25.860803280064907 0 1.0 25.860803280064907 1
gene  2 2 4 -25.12068947552973 0 2.0 -25.12068947552973 1
gene  3 3 4 -14.868457674765768 0 3.0 -14.868457674765768 1
gene  3 2 27 7.951308370108446 0 78.0 7.951308370108446 1
gene  3 27 4 2.0703854600629072 0 79.0 2.0703854600629072 1
gene  3 3 27 2.898010234698643 0 779.0 2.898010234698643 1
gene  3 1 27 3.23233368892065 0 890.0 3.23233368892065 1
genomeend 31
/* Organism # 032 Fitness:  0.000 Error:  0.000                      */
genomestart  32
trait 1 0.1 0.005259903568432409 0.0014537189467632647 0.47386833211710466 0.0 0.0 0.009495520157172595 0.01410017116116482 
trait 2 0.2 0.8123024294128814 0.5789595527849658 0.0 0.0 0.0 0.0 0.0 
trait 3 0.3 0.1256849167657712 0.0 0.0 0.0 0.7303354628455622 0.2636387643072562 0.0 
node 1 1 1 1
node 2 3 1 1
node 3 1 1 3
node 4 3 0 2
node 27 2 0 0
gene  1 1 4 1.472340718884411 0 1.0 1.472340718884411 1
gene  2 2 4 -24.333293316804053 0 2.0 -24.333293316804053 1
gene  3 3 4 -13.395674186520734 0 3.0 -13.395674186520734 1
gene  3 2 27 8.8720875330517 0 78.0 8.8720875330517 1
gene  3 27 4 -0.888387279443861 0 79.0 -0.888387279443861 1
gene  3 3 27 1.7367412002775313 0 779.0 1.7367412002775313 1
gene  3 1 27 2.3957049209753234 0 890.0 2.3957049209753234 1
genomeend 32
/*-------------------------------------------------------------------*/
/* Species # 013         : (size= 003) (AvfFit= 7.000) (Age= 70.000)  */
/*-------------------------------------------------------------------*/
/* Organism # 033 Fitness:  0.000 Error:  0.000                      */
genomestart  33
trait 1 0.1 0.0 5.856045561912565E-5 0.44204938383882053 0.3666691675468 0.0 0.8857634932704748 0.3298549034538913 
trait 2 0.3345161697529853 1.084819272250008 0.0 0.0 0.7473169494485706 0.0 0.0 0.0 
trait 3 0.21842907153164048 0.20035542706317233 0.3714054111745425 0.0 0.7677447870447633 0.0 0.0 0.0 
node 1 1 1 1
node 2 2 1 1
node 3 1 1 3
node 4 1 0 2
node 9 1 0 0
node 10 1 0 0
gene  1 1 4 25.48605115030751 0 1.0 25.48605115030751 1
gene  2 2 4 17.14964009476647 0 2.0 17.14964009476647 1
gene  2 3 4 -9.103238702833638 0 3.0 -9.103238702833638 1
gene  1 1 9 4.547895669810276 0 12.0 4.547895669810276 1
gene  2 1 10 0.5020421282225214 0 14.0 0.5020421282225214 1
gene  1 10 4 1.5764832977877818 0 15.0 1.5764832977877818 1
gene  3 2 10 -8.480504189692084 0 20.0 -8.480504189692084 1
gene  1 10 9 12.26530881850742 0 105.0 12.26530881850742 1
gene  2 2 9 4.27396300322 0 581.0 4.27396300322 1
gene  3 3 9 6.464536119743149 0 1394.0 6.464536119743149 1
genomeend 33
/* Organism # 034 Fitness:  0.000 Error:  0.000                      */
genomestart  34
trait 1 0.1 0.0 5.856045561912565E-5 0.44204938383882053 0.3666691675468 0.0 0.8857634932704748 0.3298549034538913 
trait 2 0.3345161697529853 1.084819272250008 0.0 0.0 0.7473169494485706 0.0 0.0 0.0 
trait 3 0.21842907153164048 0.20035542706317233 0.3714054111745425 0.0 0.7677447870447633 0.0 0.0 0.0 
node 1 1 1 1
node 2 2 1 1
node 3 1 1 3
node 4 1 0 2
node 9 1 0 0
node 10 1 0 0
gene  1 1 4 25.637587458507035 0 1.0 25.637587458507035 1
gene  2 2 4 18.598597830301724 0 2.0 18.598597830301724 1
gene  2 3 4 -12.136339355378835 0 3.0 -12.136339355378835 1
gene  1 1 9 6.113987853510187 0 12.0 6.113987853510187 1
gene  2 1 10 0.3702931734909676 0 14.0 0.3702931734909676 1
gene  1 10 4 1.6189711602050338 0 15.0 1.6189711602050338 1
gene  3 2 10 -4.942558029437979 0 20.0 -4.942558029437979 1
gene  1 10 9 10.475892388877254 0 105.0 10.475892388877254 1
gene  2 2 9 3.021831531057601 0 581.0 3.021831531057601 1
genomeend 34
/* Organism # 035 Fitness:  0.000 Error:  0.000                      */
genomestart  35
trait 1 0.1 0.0 5.856045561912565E-5 0.44204938383882053 0.3666691675468 0.0 0.8857634932704748 0.3298549034538913 
trait 2 0.3345161697529853 1.084819272250008 0.0 0.0 0.7473169494485706 0.0 0.0 0.0 
trait 3 0.21842907153164048 0.20035542706317233 0.3714054111745425 0.0 0.7677447870447633 0.0 0.0 0.0 
node 1 1 1 1
node 2 2 1 1
node 3 1 1 3
node 4 1 0 2
node 9 1 0 0
node 10 1 0 0
gene  1 1 4 24.30492216015041 0 1.0 24.30492216015041 1
gene  2 2 4 21.54560519495318 0 2.0 21.54560519495318 1
gene  2 3 4 -11.94165192335865 0 3.0 -11.94165192335865 1
gene  1 1 9 6.232241142359623 0 12.0 6.232241142359623 1
gene  1 1 10 2.247244673631255 0 14.0 2.247244673631255 1
gene  1 10 4 1.358424052117189 0 15.0 1.358424052117189 1
gene  3 2 10 -6.412210255299717 0 20.0 -6.412210255299717 1
gene  1 10 9 0.4296108698808007 0 105.0 0.4296108698808007 1
gene  2 2 9 2.130941861054847 0 581.0 2.130941861054847 1
genomeend 35
/*-------------------------------------------------------------------*/
/* Species # 014         : (size= 005) (AvfFit= 8.999) (Age= 69.000)  */
/*-------------------------------------------------------------------*/
/* Organism # 036 Fitness:  0.000 Error:  0.000                      */
genomestart  36
trait 1 0.9584111725248035 0.1396933324926798 0.0 2.146812873306173 1.2386046980333791 0.0 0.45410963383569514 1.1850373600039896 
trait 2 1.0023870171964346 0.0 0.0 0.0 0.0 0.6336842444651708 0.34601407246369587 0.0 
trait 3 0.3 0.0 0.0 0.0 0.0 0.0 0.0 0.0 
node 1 1 1 1
node 2 3 1 1
node 3 1 1 3
node 4 1 0 2
node 9 1 0 0
node 10 1 0 0
node 16 1 0 0
node 21 1 0 0
node 30 1 0 0
node 202 1 0 0
gene  2 1 4 16.51066573814093 0 1.0 16.51066573814093 1
gene  2 2 4 15.035705583047992 0 2.0 15.035705583047992 1
gene  1 3 4 -6.28994594753625 0 3.0 -6.28994594753625 1
gene  3 1 9 4.772294003078974 0 12.0 4.772294003078974 1
gene  1 1 10 -2.15119215688762 0 14.0 -2.15119215688762 1
gene  1 10 4 1.486698271195107 0 15.0 1.486698271195107 1
gene  3 2 10 -1.7312451460976934 0 20.0 -1.7312451460976934 1
gene  3 2 16 -9.781155078068657 0 31.0 -9.781155078068657 1
gene  3 16 10 5.690957472995276 0 32.0 5.690957472995276 1
gene  1 1 21 0.575552043615829 0 53.0 0.575552043615829 1
gene  1 21 9 8.555501890258991 0 54.0 8.555501890258991 1
gene  3 1 16 -1.0322792201731366 0 86.0 -1.0322792201731366 1
gene  2 2 30 0.3878134885431507 0 96.0 0.3878134885431507 1
gene  2 30 4 -2.2888000450029975 0 97.0 -2.2888000450029975 1
gene  1 30 10 -0.04450798137336598 0 745.0 -0.04450798137336598 1
gene  1 1 202 -0.26816219444594913 0 910.0 -0.26816219444594913 1
gene  1 202 21 0.6739042018594692 0 911.0 0.6739042018594692 1
gene  1 202 30 -0.07763329800445185 0 1177.0 -0.07763329800445185 1
gene  3 10 9 -1.327855386566004 0 1240.0 -1.327855386566004 1
genomeend 36
/* Organism # 037 Fitness:  0.000 Error:  0.000                      */
genomestart  37
trait 1 0.9584111725248035 0.1396933324926798 0.0 2.146812873306173 1.2386046980333791 0.0 0.45410963383569514 1.1850373600039896 
trait 2 1.0023870171964346 0.0 0.0 0.0 0.0 0.6336842444651708 0.34601407246369587 0.0 
trait 3 0.3 0.0 0.0 0.0 0.0 0.0 0.0 0.0 
node 1 1 1 1
node 2 3 1 1
node 3 1 1 3
node 4 1 0 2
node 9 1 0 0
node 10 1 0 0
node 16 1 0 0
node 21 1 0 0
node 30 1 0 0
node 202 1 0 0
gene  1 1 4 12.55766754236462 0 1.0 12.55766754236462 1
gene  2 2 4 15.180808433369569 0 2.0 15.180808433369569 1
gene  1 3 4 -6.531646020165798 0 3.0 -6.531646020165798 1
gene  3 1 9 5.571760863536722 0 12.0 5.571760863536722 1
gene  1 1 10 -4.078660559741012 0 14.0 -4.078660559741012 1
gene  1 10 4 -2.964846782796481 0 15.0 -2.964846782796481 1
gene  3 2 10 2.1996872021117655 0 20.0 2.1996872021117655 1
gene  3 2 16 -10.546116191648855 0 31.0 -10.546116191648855 1
gene  3 16 10 9.329822137009398 0 32.0 9.329822137009398 1
gene  1 1 21 0.7309627420467211 0 53.0 0.7309627420467211 1
gene  1 21 9 4.499541172486262 0 54.0 4.499541172486262 1
gene  3 1 16 -4.849925063231101 0 86.0 -4.849925063231101 1
gene  2 2 30 3.0060777123263627 0 96.0 3.0060777123263627 1
gene  2 30 4 -0.40419617883515935 0 97.0 -0.40419617883515935 1
gene  1 30 10 1.8860166991983882 0 745.0 1.8860166991983882 1
gene  1 1 202 -2.355864468763415 0 910.0 -2.355864468763415 1
gene  1 202 21 -0.7652946957471138 0 911.0 -0.7652946957471138 1
gene  1 202 30 -2.9103577310187614 0 1177.0 -2.9103577310187614 1
gene  3 10 9 0.7413190876428248 0 1240.0 0.7413190876428248 1
genomeend 37
/* Organism # 038 Fitness:  0.000 Error:  0.000                      */
genomestart  38
trait 1 0.9584111725248035 0.1396933324926798 0.0 2.146812873306173 1.2386046980333791 0.0 0.45410963383569514 1.1850373600039896 
trait 2 1.0023870171964346 0.0 0.0 0.0 0.0 0.6336842444651708 0.34601407246369587 0.0 
trait 3 0.3 0.0 0.0 0.0 0.0 0.0 0.0 0.0 
node 1 1 1 1
node 2 3 1 1
node 3 1 1 3
node 4 1 0 2
node 9 1 0 0
node 10 1 0 0
node 16 1 0 0
node 21 1 0 0
node 30 1 0 0
node 202 1 0 0
gene  1 1 4 14.978519720802607 0 1.0 14.978519720802607 1
gene  2 2 4 14.119526316829816 0 2.0 14.119526316829816 1
gene  1 3 4 -3.8631413323367605 0 3.0 -3.8631413323367605 1
gene  3 1 9 7.084318550476372 0 12.0 7.084318550476372 1
gene  1 1 10 -0.42085216638689027 0 14.0 -0.42085216638689027 1
gene  1 10 4 -3.7903604212676227 0 15.0 -3.7903604212676227 1
gene  3 2 10 0.7643881812207076 0 20.0 0.7643881812207076 1
gene  3 2 16 -9.241368054293659 0 31.0 -9.241368054293659 1
gene  3 16 10 9.055246581476194 0 32.0 9.055246581476194 1
gene  1 1 21 4.16260413597528 0 53.0 4.16260413597528 1
gene  1 21 9 4.914614369323652 0 54.0 4.914614369323652 1
gene  3 1 16 -0.7117577327291353 0 86.0 -0.7117577327291353 1
gene  2 2 30 2.41727323006542 0 96.0 2.41727323006542 1
gene  2 30 4 0.3776812590059915 0 97.0 0.3776812590059915 1
gene  1 30 10 0.8479840669476985 0 745.0 0.8479840669476985 1
gene  1 1 202 0.6687057911126011 0 910.0 0.6687057911126011 1
gene  1 202 21 -0.0695279025277371 0 911.0 -0.0695279025277371 1
gene  1 202 30 -3.387856402315757 0 1177.0 -3.387856402315757 1
gene  3 10 9 1.6856972352394655 0 1240.0 1.6856972352394655 1
genomeend 38
/* Organism # 039 Fitness:  0.000 Error:  0.000                      */
genomestart  39
trait 1 0.9584111725248035 0.1396933324926798 0.0 2.146812873306173 1.2386046980333791 0.0 0.45410963383569514 1.1850373600039896 
trait 2 1.0023870171964346 0.0 0.0 0.0 0.0 0.6336842444651708 0.34601407246369587 0.0 
trait 3 0.3 0.0 0.0 0.0 0.0 0.0 0.0 0.0 
node 1 1 1 1
node 2 3 1 1
node 3 1 1 3
node 4 1 0 2
node 9 1 0 0
node 10 1 0 0
node 16 1 0 0
node 21 1 0 0
node 30 1 0 0
node 202 1 0 0
gene  1 1 4 14.420673584840253 0 1.0 14.420673584840253 1
gene  2 2 4 14.149441986051352 0 2.0 14.149441986051352 1
gene  1 3 4 -5.026315560954733 0 3.0 -5.026315560954733 1
gene  3 1 9 3.539385775255508 0 12.0 3.539385775255508 1
gene  1 1 10 -1.206999276020941 0 14.0 -1.206999276020941 1
gene  1 10 4 -2.4281026604097486 0 15.0 -2.4281026604097486 1
gene  3 2 10 0.8060417569558723 0 20.0 0.8060417569558723 1
gene  3 2 16 -10.174396472016387 0 31.0 -10.174396472016387 1
gene  3 16 10 6.2862729121657495 0 32.0 6.2862729121657495 1
gene  1 1 21 1.6522585459380874 0 53.0 1.6522585459380874 1
gene  1 21 9 6.923756902186924 0 54.0 6.923756902186924 1
gene  3 1 16 -1.5789418378946758 0 86.0 -1.5789418378946758 1
gene  2 2 30 2.595887770342247 0 96.0 2.595887770342247 1
gene  2 30 4 -0.34353376604577407 0 97.0 -0.34353376604577407 1
gene  1 30 10 -0.5523523458159934 0 745.0 -0.5523523458159934 1
gene  1 1 202 0.017163164868324365 0 910.0 0.017163164868324365 1
gene  1 202 21 -0.8695616414522948 0 911.0 -0.8695616414522948 1
gene  1 202 30 -0.20882377551075443 0 1177.0 -0.20882377551075443 1
gene  3 10 9 -3.44805086988709 0 1240.0 -3.44805086988709 1
genomeend 39
/* Organism # 040 Fitness:  0.000 Error:  0.000                      */
genomestart  40
trait 1 0.9584111725248035 0.1396933324926798 0.0 2.146812873306173 1.2386046980333791 0.0 0.45410963383569514 1.1850373600039896 
trait 2 1.0023870171964346 0.0 0.0 0.997667705658534 0.0 0.6336842444651708 0.34601407246369587 0.0 
trait 3 0.3 0.0 0.0 0.0 0.0 0.0 0.0 0.0 
node 1 1 1 1
node 2 3 1 1
node 3 1 1 3
node 4 1 0 2
node 9 1 0 0
node 10 1 0 0
node 16 1 0 0
node 21 1 0 0
node 30 1 0 0
node 202 1 0 0
gene  1 1 4 11.947222282278643 0 1.0 11.947222282278643 1
gene  2 2 4 15.592413907148673 0 2.0 15.592413907148673 1
gene  1 3 4 -4.959402779853176 0 3.0 -4.959402779853176 1
gene  3 1 9 4.817150340133118 0 12.0 4.817150340133118 1
gene  1 1 10 -2.7318178123658616 0 14.0 -2.7318178123658616 1
gene  1 10 4 -0.17571422669585646 0 15.0 -0.17571422669585646 1
gene  3 2 10 2.4444126320727637 0 20.0 2.4444126320727637 1
gene  3 2 16 -10.251745872746602 0 31.0 -10.251745872746602 1
gene  3 16 10 7.6032563302644 0 32.0 7.6032563302644 1
gene  1 1 21 0.4825744040600335 0 53.0 0.4825744040600335 1
gene  1 21 9 5.104619971229422 0 54.0 5.104619971229422 1
gene  3 1 16 -4.385722717735807 0 86.0 -4.385722717735807 1
gene  2 2 30 2.731995138845205 0 96.0 2.731995138845205 1
gene  2 30 4 -1.3466550513474624 0 97.0 -1.3466550513474624 1
gene  1 30 10 2.421160144261428 0 745.0 2.421160144261428 1
gene  1 1 202 1.0042353541212319 0 910.0 1.0042353541212319 1
gene  1 202 21 -0.6345054321097039 0 911.0 -0.6345054321097039 1
gene  1 202 30 -0.7573544482464403 0 1177.0 -0.7573544482464403 1
gene  3 10 9 -1.43642115536205 0 1240.0 -1.43642115536205 1
genomeend 40
/*-------------------------------------------------------------------*/
/* Species # 016         : (size= 002) (AvfFit= 4.000) (Age= 68.000)  */
/*-------------------------------------------------------------------*/
/* Organism # 041 Fitness:  0.000 Error:  0.000                      */
genomestart  41
trait 1 0.19814246750181935 0.2696591354821223 0.0 0.6305130842319407 0.0 0.0 0.238308746599449 0.13291925186675757 
trait 2 0.2 0.0 0.0 0.0 0.0 0.0 0.0 0.0 
trait 3 0.21972656249999997 0.26125350884687804 0.0 0.0 0.0 0.157092523124436 0.0 0.137340218442294 
node 1 1 1 1
node 2 1 1 1
node 3 1 1 3
node 4 3 0 2
node 9 2 0 0
node 10 3 0 0
node 26 3 0 0
gene  2 1 4 1.4527628938951365 0 1.0 1.4527628938951365 1
gene  2 2 4 18.89660328817336 0 2.0 18.89660328817336 1
gene  3 3 4 -1.3355995722548508 0 3.0 -1.3355995722548508 1
gene  1 1 9 -0.5307302643670486 0 12.0 -0.5307302643670486 1
gene  1 9 4 0.46322408179826746 0 13.0 0.46322408179826746 1
gene  1 1 10 -9.013071866813092 0 14.0 -9.013071866813092 1
gene  2 10 4 -9.172386365284734 0 15.0 -9.172386365284734 1
gene  3 2 10 4.880883309253512 0 20.0 4.880883309253512 1
gene  2 3 9 -2.1670406361429153 0 49.0 -2.1670406361429153 1
gene  1 3 10 6.890642001406139 0 65.0 6.890642001406139 1
gene  1 1 26 -0.9271739328629596 0 76.0 -0.9271739328629596 1
gene  2 26 4 3.0612506871209177 0 77.0 3.0612506871209177 1
gene  1 10 26 -9.381780755382248 0 223.0 -9.381780755382248 1
gene  1 2 26 0.9820883698004385 0 856.0 0.9820883698004385 1
gene  3 10 9 -2.8364254843252943 0 919.0 -2.8364254843252943 1
gene  3 9 26 4.804966119052559 0 1067.0 4.804966119052559 1
gene  2 3 26 2.196557176586124 0 1107.0 2.196557176586124 1
genomeend 41
/* Organism # 042 Fitness:  0.000 Error:  0.000                      */
genomestart  42
trait 1 0.19814246750181935 0.2696591354821223 0.0 0.6305130842319407 0.0 0.0 0.238308746599449 0.13291925186675757 
trait 2 0.2 0.0 0.0 0.0 0.0 0.0 0.0 0.0 
trait 3 0.21972656249999997 0.26125350884687804 0.0 0.0 0.0 0.157092523124436 0.0 0.137340218442294 
node 1 1 1 1
node 2 1 1 1
node 3 1 1 3
node 4 3 0 2
node 9 2 0 0
node 10 3 0 0
node 26 3 0 0
gene  2 1 4 0.8190375604466471 0 1.0 0.8190375604466471 1
gene  2 2 4 19.108252729818897 0 2.0 19.108252729818897 1
gene  3 3 4 0.7666845052171074 0 3.0 0.7666845052171074 1
gene  1 1 9 5.125365980894946 0 12.0 5.125365980894946 1
gene  1 9 4 -10.30868002273809 0 13.0 -10.30868002273809 1
gene  1 1 10 -7.641819224437035 0 14.0 -7.641819224437035 1
gene  2 10 4 -5.6910073183734635 0 15.0 -5.6910073183734635 1
gene  3 2 10 2.399145697987888 0 20.0 2.399145697987888 1
gene  2 3 9 -0.3862816869356651 0 49.0 -0.3862816869356651 1
gene  1 3 10 5.2240455684326115 0 65.0 5.2240455684326115 1
gene  1 1 26 -4.5018458019829435 0 76.0 -4.5018458019829435 1
gene  2 26 4 2.376269663625054 0 77.0 2.376269663625054 1
gene  1 10 26 -9.559674253976738 0 223.0 -9.559674253976738 1
gene  1 2 26 0.4349163734269397 0 856.0 0.4349163734269397 1
gene  3 10 9 -3.0093393127748946 0 919.0 -3.0093393127748946 1
gene  3 9 26 1.8019590219050747 0 1067.0 1.8019590219050747 1
gene  2 3 26 -0.34163352565166966 0 1107.0 -0.34163352565166966 1
genomeend 42
/*-------------------------------------------------------------------*/
/* Species # 019         : (size= 001) (AvfFit= 2.961) (Age= 67.000)  */
/*-------------------------------------------------------------------*/
/* Organism # 043 Fitness:  0.000 Error:  0.000                      */
genomestart  43
trait 1 0.0 0.0 0.7884840367765379 0.7632430074586394 0.0 0.267958462850752 0.013050581600351524 0.004667346097480306 
trait 2 0.2 0.0 0.0 0.0 0.8634320714054488 0.0 0.18124985192281062 0.0 
trait 3 0.5887556425071423 0.0 0.0 0.47953172516326925 0.9866635813162257 0.0 0.7821603469488333 0.04343904720040104 
node 1 2 1 1
node 2 1 1 1
node 3 1 1 3
node 4 1 0 2
node 10 1 0 0
node 16 2 0 0
gene  1 1 4 -1.589075928517273 0 1.0 -1.589075928517273 1
gene  2 2 4 3.7020122145737773 0 2.0 3.7020122145737773 1
gene  3 3 4 2.9088951300851225 0 3.0 2.9088951300851225 1
gene  1 1 10 -1.2916587745765016 0 14.0 -1.2916587745765016 1
gene  3 10 4 5.5569858646687225 0 15.0 5.5569858646687225 1
gene  3 2 10 -1.4999973331917706 0 20.0 -1.4999973331917706 1
gene  3 2 16 -0.1156671178161921 0 31.0 -0.1156671178161921 1
gene  3 16 10 0.601687134380773 0 32.0 0.601687134380773 1
gene  1 3 16 -0.44296166442264506 0 45.0 -0.44296166442264506 1
gene  3 1 16 2.4998232433482266 0 121.0 2.4998232433482266 1
gene  1 16 4 0.11450975203990049 0 171.0 0.11450975203990049 1
gene  1 3 10 0.18242660068966748 0 1098.0 0.18242660068966748 1
genomeend 43
/*-------------------------------------------------------------------*/
/* Species # 024         : (size= 003) (AvfFit= 5.444) (Age= 61.000)  */
/*-------------------------------------------------------------------*/
/* Organism # 044 Fitness:  0.000 Error:  0.000                      */
genomestart  44
trait 1 0.0 0.19799781538007866 1.6740504500871305 0.6032348853603703 0.9257820290560145 0.0 0.8160203487697801 0.2137902900651254 
trait 2 0.2 0.0 0.0 0.0 0.5751460764154608 0.0 0.0 0.3975595927493123 
trait 3 0.5887556425071423 0.0 0.0 0.0 0.07301637668131583 0.0 0.0 0.0 
node 1 2 1 1
node 2 1 1 1
node 3 1 1 3
node 4 2 0 2
node 10 1 0 0
node 16 1 0 0
node 48 1 0 0
node 225 1 0 0
node 232 1 0 0
gene  1 1 4 5.5918547814839785 0 1.0 5.5918547814839785 1
gene  2 2 4 9.054047827278412 0 2.0 9.054047827278412 1
gene  3 3 4 -3.2613740579972847 0 3.0 -3.2613740579972847 1
gene  1 1 10 -0.3121151375246418 0 14.0 -0.3121151375246418 1
gene  3 10 4 -2.144448723888595 0 15.0 -2.144448723888595 1
gene  3 2 10 -0.40053586198206936 0 20.0 -0.40053586198206936 1
gene  3 2 16 1.2002775690857472 0 31.0 1.2002775690857472 1
gene  2 16 10 -4.059420367853864 0 32.0 -4.059420367853864 1
gene  1 3 16 -12.317203496413288 0 45.0 -12.317203496413288 1
gene  2 1 16 -2.3695108608969373 0 121.0 -2.3695108608969373 1
gene  3 3 10 -2.289038044823817 0 164.0 -2.289038044823817 1
gene  3 1 48 4.67342781198743 0 196.0 4.67342781198743 1
gene  3 48 4 2.9815384894309007 0 197.0 2.9815384894309007 1
gene  2 48 16 0.6572835603419365 0 234.0 0.6572835603419365 1
gene  3 48 10 -8.161470919698298 0 718.0 -8.161470919698298 1
gene  2 3 48 -3.0380564849495086 0 903.0 -3.0380564849495086 1
gene  1 1 225 6.84928241964459 0 1013.0 6.84928241964459 1
gene  1 225 10 -4.442368437672702 0 1014.0 -4.442368437672702 1
gene  1 225 232 -2.42538093371917 0 1035.0 -2.42538093371917 1
gene  1 232 10 -2.1079967154604393 0 1036.0 -2.1079967154604393 1
gene  2 16 232 -4.092826369426433 0 1078.0 -4.092826369426433 1
gene  1 2 48 7.911228182590254 0 1205.0 7.911228182590254 1
gene  1 2 225 6.244828989852097 0 1228.0 6.244828989852097 1
gene  1 16 4 -4.945360635774646 0 1335.0 -4.945360635774646 1
genomeend 44
/* Organism # 045 Fitness:  0.000 Error:  0.000                      */
genomestart  45
trait 1 0.0 0.19799781538007866 1.6740504500871305 0.6032348853603703 0.9257820290560145 0.0 0.8160203487697801 0.2137902900651254 
trait 2 0.2 0.0 0.0 0.0 0.5751460764154608 0.0 0.0 0.3975595927493123 
trait 3 0.5887556425071423 0.0 0.0 0.0 0.07301637668131583 0.0 0.0 0.0 
node 1 2 1 1
node 2 1 1 1
node 3 1 1 3
node 4 2 0 2
node 10 1 0 0
node 16 1 0 0
node 48 1 0 0
node 225 1 0 0
node 232 1 0 0
gene  1 1 4 1.8737823947174417 0 1.0 1.8737823947174417 1
gene  2 2 4 9.292867727097764 0 2.0 9.292867727097764 1
gene  3 3 4 -0.4390873823422772 0 3.0 -0.4390873823422772 1
gene  1 1 10 -3.380388879702604 0 14.0 -3.380388879702604 1
gene  3 10 4 -3.086483038226291 0 15.0 -3.086483038226291 1
gene  3 2 10 -1.2760197868723917 0 20.0 -1.2760197868723917 1
gene  3 2 16 0.2439296531939823 0 31.0 0.2439296531939823 1
gene  2 16 10 -0.7858825833210272 0 32.0 -0.7858825833210272 1
gene  1 3 16 -9.811613769755926 0 45.0 -9.811613769755926 1
gene  2 1 16 -1.10485107410507 0 121.0 -1.10485107410507 1
gene  3 3 10 -4.236610503556421 0 164.0 -4.236610503556421 1
gene  3 1 48 3.347737609763769 0 196.0 3.347737609763769 1
gene  3 48 4 6.370689210448263 0 197.0 6.370689210448263 1
gene  2 48 16 1.1580908076299328 0 234.0 1.1580908076299328 1
gene  3 48 10 -8.493719207033974 0 718.0 -8.493719207033974 1
gene  2 3 48 -4.466374832464798 0 903.0 -4.466374832464798 1
gene  1 1 225 5.082915358460876 0 1013.0 5.082915358460876 1
gene  1 225 10 -5.930239660099632 0 1014.0 -5.930239660099632 1
gene  1 225 232 -5.34188820671968 0 1035.0 -5.34188820671968 1
gene  1 232 10 -2.6234179870879 0 1036.0 -2.6234179870879 1
gene  2 16 232 1.369744104432107 0 1078.0 1.369744104432107 1
gene  1 2 48 -1.3802417873588124 0 1205.0 -1.3802417873588124 1
gene  1 2 225 5.357836863295987 0 1228.0 5.357836863295987 1
gene  1 16 4 -4.945360635774646 0 1335.0 -4.945360635774646 1
genomeend 45
/* Organism # 046 Fitness:  0.000 Error:  0.000                      */
genomestart  46
trait 1 0.0 0.19799781538007866 1.6740504500871305 0.6032348853603703 0.9257820290560145 0.0 0.8160203487697801 0.2137902900651254 
trait 2 0.2 0.0 0.0 0.0 0.5751460764154608 0.0 0.0 0.3975595927493123 
trait 3 0.5887556425071423 0.0 0.0 0.0 0.07301637668131583 0.0 0.0 0.0 
node 1 2 1 1
node 2 1 1 1
node 3 1 1 3
node 4 2 0 2
node 10 1 0 0
node 16 1 0 0
node 48 1 0 0
node 225 1 0 0
node 232 1 0 0
gene  1 1 4 -1.8844559383721424 0 1.0 -1.8844559383721424 1
gene  2 2 4 8.797828250372065 0 2.0 8.797828250372065 1
gene  3 3 4 -2.552629659167364 0 3.0 -2.552629659167364 1
gene  1 1 10 -2.6291840061936176 0 14.0 -2.6291840061936176 0
gene  3 10 4 -5.244863260540035 0 15.0 -5.244863260540035 1
gene  3 2 10 -0.7999271009914941 0 20.0 -0.7999271009914941 1
gene  3 2 16 -3.2412012895404323 0 31.0 -3.2412012895404323 1
gene  2 16 10 -2.807039287563776 0 32.0 -2.807039287563776 1
gene  1 3 16 -0.6857327502560153 0 45.0 -0.6857327502560153 1
gene  2 1 16 -1.758849462443261 0 121.0 -1.758849462443261 1
gene  3 3 10 -6.119897278297959 0 164.0 -6.119897278297959 1
gene  3 1 48 3.378893619826731 0 196.0 3.378893619826731 1
gene  3 48 4 6.155407719794041 0 197.0 6.155407719794041 1
gene  2 48 16 -2.1640042633805185 0 234.0 -2.1640042633805185 1
gene  3 48 10 -8.733672759881212 0 718.0 -8.733672759881212 1
gene  2 3 48 0.3352197024356976 0 903.0 0.3352197024356976 1
gene  1 1 225 6.156281160940777 0 1013.0 6.156281160940777 1
gene  1 225 10 -4.245998195811057 0 1014.0 -4.245998195811057 1
gene  1 225 232 -3.048196254111211 0 1035.0 -3.048196254111211 1
gene  1 232 10 -0.7700023999386838 0 1036.0 -0.7700023999386838 1
gene  2 16 232 -3.037086347872973 0 1078.0 -3.037086347872973 1
gene  1 2 48 8.047710292192026 0 1205.0 8.047710292192026 1
gene  1 2 225 -1.404200100712207 0 1228.0 -1.404200100712207 1
gene  1 16 4 -7.017609078785368 0 1335.0 -7.017609078785368 1
genomeend 46
/*-------------------------------------------------------------------*/
/* Species # 025         : (size= 004) (AvfFit= 7.436) (Age= 61.000)  */
/*-------------------------------------------------------------------*/
/* Organism # 047 Fitness:  0.000 Error:  0.000                      */
genomestart  47
trait 1 0.5101630271418682 0.0 0.0 0.0 0.0 0.0 0.28026076624605917 0.04667346097480306 
trait 2 0.2 0.0 0.0 0.0 0.0 0.0 0.0 0.0 
trait 3 0.17482877819326803 0.6034779628160705 0.699584062724019 0.06303670303917852 0.0 0.5017406445170687 0.32635828605536976 0.6316527788630955 
node 1 1 1 1
node 2 1 1 1
node 3 1 1 3
node 4 2 0 2
node 9 1 0 0
node 10 2 0 0
node 203 1 0 0
node 245 1 0 0
node 296 1 0 0
gene  2 1 4 25.278457142992146 0 1.0 25.278457142992146 1
gene  2 2 4 3.00044591337629 0 2.0 3.00044591337629 1
gene  2 3 4 -3.9709078383001524 0 3.0 -3.9709078383001524 1
gene  1 1 9 -7.692173294512731 0 12.0 -7.692173294512731 1
gene  1 9 4 5.5355727310125085 0 13.0 5.5355727310125085 1
gene  1 1 10 1.9048787727292176 0 14.0 1.9048787727292176 1
gene  1 10 4 6.07449648320747 0 15.0 6.07449648320747 0
gene  3 2 10 -1.858541942621457 0 20.0 -1.858541942621457 1
gene  2 3 9 -5.8785396719106355 0 49.0 -5.8785396719106355 1
gene  1 3 10 9.075221357413639 0 65.0 9.075221357413639 1
gene  3 10 9 1.8073212995049488 0 82.0 1.8073212995049488 1
gene  3 2 9 6.106234955835037 0 133.0 6.106234955835037 1
gene  2 1 203 4.527132192901633 0 912.0 4.527132192901633 1
gene  2 203 4 6.709333228778471 0 913.0 6.709333228778471 1
gene  3 203 9 -2.0859735555220538 0 971.0 -2.0859735555220538 1
gene  2 203 10 0.24806203988628672 0 983.0 0.24806203988628672 1
gene  2 9 245 -7.7527209315234895 0 1099.0 -7.7527209315234895 1
gene  1 245 4 -2.9102495483573003 0 1100.0 -2.9102495483573003 1
gene  2 2 203 -0.31694664580534404 0 1130.0 -0.31694664580534404 1
gene  1 3 245 4.428795953661455 0 1229.0 4.428795953661455 1
gene  2 1 245 1.479920865195758 0 1288.0 1.479920865195758 1
gene  1 10 296 -3.1222858158156153 0 1303.0 -3.1222858158156153 1
gene  1 296 4 0.2818860003507626 0 1304.0 0.2818860003507626 1
gene  1 3 296 -1.0621639934034575 0 1322.0 -1.0621639934034575 1
genomeend 47
/* Organism # 048 Fitness:  0.000 Error:  0.000                      */
genomestart  48
trait 1 0.5101630271418682 0.0 0.0 0.0 0.0 0.0 0.28026076624605917 0.04667346097480306 
trait 2 0.2 0.0 0.0 0.0 0.0 0.0 0.0 0.0 
trait 3 0.17482877819326803 0.6034779628160705 0.699584062724019 0.06303670303917852 0.0 0.5017406445170687 0.32635828605536976 0.6316527788630955 
node 1 1 1 1
node 2 1 1 1
node 3 1 1 3
node 4 2 0 2
node 9 1 0 0
node 10 2 0 0
node 203 1 0 0
node 245 1 0 0
node 296 1 0 0
gene  2 1 4 26.02087422865407 0 1.0 26.02087422865407 1
gene  2 2 4 4.9942856440599535 0 2.0 4.9942856440599535 1
gene  2 3 4 -5.5866691882238255 0 3.0 -5.5866691882238255 1
gene  1 1 9 -3.681172596078375 0 12.0 -3.681172596078375 1
gene  1 9 4 7.369992089554945 0 13.0 7.369992089554945 1
gene  1 1 10 2.4277072287647448 0 14.0 2.4277072287647448 1
gene  1 10 4 6.7437117581242525 0 15.0 6.7437117581242525 0
gene  3 2 10 -4.233188544230385 0 20.0 -4.233188544230385 1
gene  2 3 9 -3.7439218380049297 0 49.0 -3.7439218380049297 1
gene  1 3 10 9.334038124377269 0 65.0 9.334038124377269 1
gene  3 10 9 -0.5720492240659181 0 82.0 -0.5720492240659181 1
gene  3 2 9 5.262537271157061 0 133.0 5.262537271157061 1
gene  2 1 203 -0.07420519284613403 0 912.0 -0.07420519284613403 1
gene  2 203 4 2.113628882307736 0 913.0 2.113628882307736 1
gene  3 203 9 -1.857230333695469 0 971.0 -1.857230333695469 1
gene  2 203 10 -1.2956623501984597 0 983.0 -1.2956623501984597 1
gene  1 9 245 2.3482366082732593 0 1099.0 2.3482366082732593 1
gene  1 245 4 2.374006816145421 0 1100.0 2.374006816145421 1
gene  2 2 203 1.9904924228804446 0 1130.0 1.9904924228804446 1
gene  1 3 245 1.2184117921429034 0 1229.0 1.2184117921429034 1
gene  2 1 245 0.36682854819122507 0 1288.0 0.36682854819122507 1
gene  1 10 296 -1.2793999279462531 0 1303.0 -1.2793999279462531 1
gene  1 296 4 -2.167392904823938 0 1304.0 -2.167392904823938 1
gene  1 3 296 -2.875003156670582 0 1322.0 -2.875003156670582 1
genomeend 48
/* Organism # 049 Fitness:  0.000 Error:  0.000                      */
genomestart  49
trait 1 0.5101630271418682 0.0 0.0 0.0 0.0 0.0 0.28026076624605917 0.04667346097480306 
trait 2 0.2 0.0 0.0 0.0 0.0 0.0 0.0 0.0 
trait 3 0.17482877819326803 0.6034779628160705 0.699584062724019 0.06303670303917852 0.0 0.5017406445170687 0.32635828605536976 0.6316527788630955 
node 1 1 1 1
node 2 1 1 1
node 3 1 1 3
node 4 2 0 2
node 9 1 0 0
node 10 2 0 0
node 203 1 0 0
node 245 1 0 0
node 296 1 0 0
gene  2 1 4 24.218578647979832 0 1.0 24.218578647979832 1
gene  2 2 4 2.5392842798462922 0 2.0 2.5392842798462922 1
gene  2 3 4 -0.6693656831019585 0 3.0 -0.6693656831019585 1
gene  1 1 9 -3.63041684298372 0 12.0 -3.63041684298372 1
gene  1 9 4 8.183319929980385 0 13.0 8.183319929980385 1
gene  1 1 10 2.823304397818205 0 14.0 2.823304397818205 1
gene  1 10 4 4.641739697423186 0 15.0 4.641739697423186 0
gene  3 2 10 -6.587763057601424 0 20.0 -6.587763057601424 1
gene  2 3 9 -8.07274856989985 0 49.0 -8.07274856989985 1
gene  1 3 10 13.577911075677834 0 65.0 13.577911075677834 1
gene  3 10 9 0.4314079257353769 0 82.0 0.4314079257353769 1
gene  3 2 9 5.608115498240927 0 133.0 5.608115498240927 1
gene  2 1 203 5.149892696121207 0 912.0 5.149892696121207 1
gene  2 203 4 5.274157986719391 0 913.0 5.274157986719391 1
gene  3 203 9 -3.716221817371567 0 971.0 -3.716221817371567 1
gene  2 203 10 -2.733219377196761 0 983.0 -2.733219377196761 1
gene  1 9 245 -9.00277015211117 0 1099.0 -9.00277015211117 1
gene  1 245 4 -4.504204694622848 0 1100.0 -4.504204694622848 1
gene  2 2 203 1.4385475375845247 0 1130.0 1.4385475375845247 1
gene  1 3 245 3.4783602399134836 0 1229.0 3.4783602399134836 1
gene  2 1 245 0.8280705511811381 0 1288.0 0.8280705511811381 1
gene  1 10 296 0.45911459667956844 0 1303.0 0.45911459667956844 1
gene  1 296 4 1.1775424239715606 0 1304.0 1.1775424239715606 1
gene  1 3 296 -4.050113419536634 0 1322.0 -4.050113419536634 1
genomeend 49
/* Organism # 050 Fitness:  0.000 Error:  0.000                      */
genomestart  50
trait 1 0.5101630271418682 0.0 0.0 0.0 0.0 0.0 0.28026076624605917 0.04667346097480306 
trait 2 0.2 0.0 0.0 0.0 0.0 0.0 0.0 0.0 
trait 3 0.17482877819326803 0.6034779628160705 0.699584062724019 0.06303670303917852 0.0 0.5017406445170687 0.32635828605536976 0.6316527788630955 
node 1 1 1 1
node 2 1 1 1
node 3 1 1 3
node 4 2 0 2
node 9 1 0 0
node 10 2 0 0
node 203 1 0 0
node 245 1 0 0
node 296 1 0 0
gene  2 1 4 24.006427076446226 0 1.0 24.006427076446226 1
gene  2 2 4 4.9942856440599535 0 2.0 4.9942856440599535 1
gene  2 3 4 -3.1066868333418705 0 3.0 -3.1066868333418705 1
gene  1 1 9 -5.6682381802940345 0 12.0 -5.6682381802940345 1
gene  1 9 4 6.248808876756388 0 13.0 6.248808876756388 1
gene  1 1 10 3.389894367646848 0 14.0 3.389894367646848 1
gene  1 10 4 4.734603960871773 0 15.0 4.734603960871773 0
gene  3 2 10 -4.233188544230385 0 20.0 -4.233188544230385 1
gene  2 3 9 -5.856800091427608 0 49.0 -5.856800091427608 1
gene  1 3 10 11.09917513690793 0 65.0 11.09917513690793 1
gene  3 10 9 -0.5720492240659181 0 82.0 -0.5720492240659181 1
gene  3 2 9 7.6204982521832365 0 133.0 7.6204982521832365 1
gene  2 1 203 4.022460569243988 0 912.0 4.022460569243988 1
gene  2 203 4 4.33201929423278 0 913.0 4.33201929423278 1
gene  3 203 9 -2.626840174061147 0 971.0 -2.626840174061147 1
gene  2 203 10 -1.3280175775898047 0 983.0 -1.3280175775898047 1
gene  1 9 245 -6.572771875081877 0 1099.0 -6.572771875081877 1
gene  1 245 4 -4.317701466324413 0 1100.0 -4.317701466324413 1
gene  2 2 203 0.6054525924750598 0 1130.0 0.6054525924750598 1
gene  1 3 245 2.245131874293664 0 1229.0 2.245131874293664 1
gene  2 1 245 0.8280705511811381 0 1288.0 0.8280705511811381 1
gene  1 10 296 -1.502402856111884 0 1303.0 -1.502402856111884 1
gene  1 296 4 -0.7418671074876815 0 1304.0 -0.7418671074876815 1
gene  1 3 296 -2.852768840481203 0 1322.0 -2.852768840481203 1
gene  2 203 296 -8.752331387933264 0 1414.0 -8.752331387933264 1
genomeend 50
/*-------------------------------------------------------------------*/
/* Species # 026         : (size= 003) (AvfFit= 6.500) (Age= 58.000)  */
/*-------------------------------------------------------------------*/
/* Organism # 051 Fitness:  0.000 Error:  0.000                      */
genomestart  51
trait 1 0.1 0.3417447030788746 5.451446050362243E-4 0.0 0.09507730199181502 0.0 0.003560820058939723 0.1495603475272626 
trait 2 0.5007897535820542 0.08679244752610382 0.22628217458782163 0.0 0.2716548467326141 0.17176151610285129 0.0 0.0 
trait 3 0.25163992165814825 0.0 0.0 0.10850167395399224 0.3678684839275702 0.05596945120377844 0.0 0.0 
node 1 1 1 1
node 2 1 1 1
node 3 1 1 3
node 4 2 0 2
node 278 1 0 0
gene  3 1 4 2.858984748733579 0 1.0 2.858984748733579 1
gene  2 2 4 0.41847692812859183 0 2.0 0.41847692812859183 1
gene  1 3 4 -1.9554044388836975 0 3.0 -1.9554044388836975 1
gene  3 1 278 3.5208584462432797 0 1226.0 3.5208584462432797 1
gene  3 278 4 4.404130591962107 0 1227.0 4.404130591962107 1
gene  2 2 278 6.357878451492594 0 1302.0 6.357878451492594 1
gene  2 3 278 -1.7151124382216736 0 1337.0 -1.7151124382216736 1
genomeend 51
/* Organism # 052 Fitness:  0.000 Error:  0.000                      */
genomestart  52
trait 1 0.1 0.3417447030788746 5.451446050362243E-4 0.0 0.09507730199181502 0.0 0.003560820058939723 0.1495603475272626 
trait 2 0.5007897535820542 0.08679244752610382 0.22628217458782163 0.0 0.2716548467326141 0.17176151610285129 0.0 0.0 
trait 3 0.25163992165814825 0.0 0.0 0.10850167395399224 0.3678684839275702 0.05596945120377844 0.0 0.0 
node 1 1 1 1
node 2 1 1 1
node 3 1 1 3
node 4 2 0 2
node 278 1 0 0
gene  3 1 4 4.689994015738497 0 1.0 4.689994015738497 1
gene  2 2 4 2.887486826659006 0 2.0 2.887486826659006 1
gene  1 3 4 -1.9554044388836975 0 3.0 -1.9554044388836975 1
gene  3 1 278 -1.7291770974475205 0 1226.0 -1.7291770974475205 1
gene  3 278 4 6.138215499695937 0 1227.0 6.138215499695937 1
gene  2 2 278 5.674225567692692 0 1302.0 5.674225567692692 1
gene  2 3 278 2.0349283450351 0 1337.0 2.0349283450351 1
genomeend 52
/* Organism # 053 Fitness:  0.000 Error:  0.000                      */
genomestart  53
trait 1 0.1 0.3417447030788746 5.451446050362243E-4 0.0 0.09507730199181502 0.0 0.003560820058939723 0.1495603475272626 
trait 2 0.5007897535820542 0.08679244752610382 0.22628217458782163 0.0 0.2716548467326141 0.17176151610285129 0.0 0.0 
trait 3 0.25163992165814825 0.0 0.0 0.10850167395399224 0.3678684839275702 0.05596945120377844 0.0 0.0 
node 1 1 1 1
node 2 1 1 1
node 3 1 1 3
node 4 2 0 2
node 278 1 0 0
node 322 1 0 0
gene  3 1 4 2.858984748733579 0 1.0 2.858984748733579 0
gene  2 2 4 0.41847692812859183 0 2.0 0.41847692812859183 1
gene  1 3 4 -1.9554044388836975 0 3.0 -1.9554044388836975 1
gene  3 1 278 3.5208584462432797 0 1226.0 3.5208584462432797 1
gene  3 278 4 4.404130591962107 0 1227.0 4.404130591962107 1
gene  2 2 278 6.357878451492594 0 1302.0 6.357878451492594 1
gene  2 3 278 -1.7151124382216736 0 1337.0 -1.7151124382216736 1
gene  3 1 322 1.0 0 1412.0 0.0 1
gene  3 322 4 2.858984748733579 0 1413.0 0.0 1
genomeend 53
/*-------------------------------------------------------------------*/
/* Species # 027         : (size= 004) (AvfFit= 7.750) (Age= 55.000)  */
/*-------------------------------------------------------------------*/
/* Organism # 054 Fitness:  0.000 Error:  0.000                      */
genomestart  54
trait 1 0.6800739162606015 0.0 0.693490655043196 0.0 0.0 0.4716226891429821 0.2223154837560944 0.0 
trait 2 0.2 0.0 0.0 0.0 0.0 0.0 0.0 0.0 
trait 3 0.5887556425071423 0.0 0.0 0.0 0.07301637668131583 0.0 0.0 0.0 
node 1 1 1 1
node 2 1 1 1
node 3 1 1 3
node 4 1 0 2
node 10 3 0 0
node 16 1 0 0
node 58 2 0 0
node 154 1 0 0
gene  1 1 4 8.480163645829544 0 1.0 8.480163645829544 1
gene  2 2 4 -4.719277080362799 0 2.0 -4.719277080362799 1
gene  3 3 4 1.0625293682042694 0 3.0 1.0625293682042694 1
gene  1 1 10 -1.7460910415594917 0 14.0 -1.7460910415594917 1
gene  3 10 4 -30.197885313285525 0 15.0 -30.197885313285525 1
gene  2 2 10 7.776950568190269 0 20.0 7.776950568190269 1
gene  3 2 16 0.7496684605801914 0 31.0 0.7496684605801914 1
gene  3 16 10 5.424495415669291 0 32.0 5.424495415669291 1
gene  1 3 16 -6.62313560279429 0 45.0 -6.62313560279429 1
gene  2 1 16 -3.670341029930124 0 121.0 -3.670341029930124 1
gene  1 16 4 -0.393476663504497 0 171.0 -0.393476663504497 1
gene  1 2 58 6.99684049118544 0 250.0 6.99684049118544 1
gene  2 58 4 -4.700309235862049 0 251.0 -4.700309235862049 1
gene  3 1 58 -0.5813317328911127 0 267.0 -0.5813317328911127 1
gene  2 58 16 1.8895503349527352 0 542.0 1.8895503349527352 1
gene  1 2 154 -2.3767670175632176 0 708.0 -2.3767670175632176 1
gene  1 154 58 -2.2182632835777025 0 709.0 -2.2182632835777025 1
gene  1 154 4 0.9869588139439793 0 1059.0 0.9869588139439793 1
gene  3 58 10 3.6235802134244444 0 1219.0 3.6235802134244444 1
gene  1 3 58 0.49664571854629164 0 1245.0 0.49664571854629164 1
genomeend 54
/* Organism # 055 Fitness:  0.000 Error:  0.000                      */
genomestart  55
trait 1 0.6800739162606015 0.0 0.693490655043196 0.0 0.0 0.4716226891429821 0.2223154837560944 0.0 
trait 2 0.2 0.0 0.0 0.0 0.0 0.0 0.0 0.0 
trait 3 0.5887556425071423 0.0 0.0 0.0 0.07301637668131583 0.0 0.0 0.0 
node 1 1 1 1
node 2 1 1 1
node 3 1 1 3
node 4 1 0 2
node 10 3 0 0
node 16 1 0 0
node 58 2 0 0
node 154 1 0 0
gene  1 1 4 7.581205863489153 0 1.0 7.581205863489153 1
gene  2 2 4 -3.463623257050614 0 2.0 -3.463623257050614 1
gene  3 3 4 -0.22031516792295935 0 3.0 -0.22031516792295935 1
gene  1 1 10 -1.3632480551169006 0 14.0 -1.3632480551169006 1
gene  3 10 4 -27.86326465384107 0 15.0 -27.86326465384107 1
gene  2 2 10 8.26458884358922 0 20.0 8.26458884358922 1
gene  3 2 16 2.5921246422769255 0 31.0 2.5921246422769255 1
gene  3 16 10 6.438219486344613 0 32.0 6.438219486344613 1
gene  1 3 16 -6.2830362008415355 0 45.0 -6.2830362008415355 1
gene  2 1 16 -1.9048104653231854 0 121.0 -1.9048104653231854 1
gene  1 16 4 -1.8378298385841243 0 171.0 -1.8378298385841243 1
gene  1 2 58 4.98834986911319 0 250.0 4.98834986911319 1
gene  2 58 4 -4.272188762192194 0 251.0 -4.272188762192194 1
gene  3 1 58 -1.6611604571504985 0 267.0 -1.6611604571504985 1
gene  2 58 16 3.762254813108097 0 542.0 3.762254813108097 1
gene  1 2 154 -0.2608509595461892 0 708.0 -0.2608509595461892 1
gene  1 154 58 -3.0166746731245224 0 709.0 -3.0166746731245224 1
gene  1 154 4 0.9467373255548548 0 1059.0 0.9467373255548548 1
gene  3 58 10 3.6235802134244444 0 1219.0 3.6235802134244444 1
gene  1 3 58 0.49664571854629164 0 1245.0 0.49664571854629164 1
genomeend 55
/* Organism # 056 Fitness:  0.000 Error:  0.000                      */
genomestart  56
trait 1 0.6800739162606015 0.0 0.693490655043196 0.0 0.0 0.4716226891429821 0.2223154837560944 0.0 
trait 2 0.2 0.0 0.0 0.0 0.0 0.0 0.0 0.0 
trait 3 0.5887556425071423 0.0 0.0 0.0 0.07301637668131583 0.0 0.0 0.0 
node 1 1 1 1
node 2 1 1 1
node 3 1 1 3
node 4 1 0 2
node 10 3 0 0
node 16 1 0 0
node 58 2 0 0
node 154 1 0 0
gene  1 1 4 9.462437499351783 0 1.0 9.462437499351783 1
gene  2 2 4 -6.482465515373936 0 2.0 -6.482465515373936 1
gene  3 3 4 2.002557273336917 0 3.0 2.002557273336917 1
gene  1 1 10 -0.19808408238186814 0 14.0 -0.19808408238186814 1
gene  3 10 4 -32.386312002256346 0 15.0 -32.386312002256346 1
gene  2 2 10 5.393980073266116 0 20.0 5.393980073266116 1
gene  3 2 16 3.051106045703141 0 31.0 3.051106045703141 1
gene  3 16 10 7.520887541337508 0 32.0 7.520887541337508 1
gene  1 3 16 -7.058738909407433 0 45.0 -7.058738909407433 1
gene  2 1 16 -3.150738952495537 0 121.0 -3.150738952495537 1
gene  1 16 4 0.8388519068888802 0 171.0 0.8388519068888802 1
gene  1 2 58 7.450350379498277 0 250.0 7.450350379498277 1
gene  2 58 4 -3.141820142651336 0 251.0 -3.141820142651336 1
gene  3 1 58 -0.44419631219486 0 267.0 -0.44419631219486 1
gene  2 58 16 3.4643890479068222 0 542.0 3.4643890479068222 1
gene  1 2 154 -2.149950277689233 0 708.0 -2.149950277689233 1
gene  1 154 58 -3.599988554255038 0 709.0 -3.599988554255038 1
gene  1 154 4 1.5657907996810903 0 1059.0 1.5657907996810903 1
gene  3 58 10 3.6235802134244444 0 1219.0 3.6235802134244444 1
gene  1 3 58 0.9971781180802444 0 1245.0 0.9971781180802444 1
genomeend 56
/* Organism # 057 Fitness:  0.000 Error:  0.000                      */
genomestart  57
trait 1 0.6800739162606015 0.0 0.693490655043196 0.0 0.0 0.4716226891429821 0.2223154837560944 0.0 
trait 2 0.2 0.0 0.0 0.0 0.0 0.0 0.0 0.0 
trait 3 0.5887556425071423 0.0 0.0 0.0 0.07301637668131583 0.0 0.0 0.0 
node 1 1 1 1
node 2 1 1 1
node 3 1 1 3
node 4 1 0 2
node 10 3 0 0
node 16 1 0 0
node 58 2 0 0
node 154 1 0 0
gene  1 1 4 8.480163645829544 0 1.0 8.480163645829544 1
gene  2 2 4 -4.719277080362799 0 2.0 -4.719277080362799 1
gene  3 3 4 1.0625293682042694 0 3.0 1.0625293682042694 1
gene  1 1 10 -1.7460910415594917 0 14.0 -1.7460910415594917 1
gene  3 10 4 -30.197885313285525 0 15.0 -30.197885313285525 1
gene  2 2 10 7.776950568190269 0 20.0 7.776950568190269 1
gene  3 2 16 0.7496684605801914 0 31.0 0.7496684605801914 1
gene  3 16 10 5.424495415669291 0 32.0 5.424495415669291 1
gene  1 3 16 -6.62313560279429 0 45.0 -6.62313560279429 1
gene  2 1 16 -3.670341029930124 0 121.0 -3.670341029930124 1
gene  1 16 4 -0.393476663504497 0 171.0 -0.393476663504497 1
gene  1 2 58 6.99684049118544 0 250.0 6.99684049118544 1
gene  2 58 4 -4.700309235862049 0 251.0 -4.700309235862049 1
gene  3 1 58 -0.5813317328911127 0 267.0 -0.5813317328911127 1
gene  2 58 16 1.8895503349527352 0 542.0 1.8895503349527352 1
gene  1 2 154 -2.3767670175632176 0 708.0 -2.3767670175632176 1
gene  1 154 58 -2.2182632835777025 0 709.0 -2.2182632835777025 1
gene  1 154 4 0.9869588139439793 0 1059.0 0.9869588139439793 1
gene  3 58 10 3.6235802134244444 0 1219.0 3.6235802134244444 1
gene  1 3 58 0.49664571854629164 0 1245.0 0.49664571854629164 1
gene  1 154 10 8.462180425268354 0 1395.0 8.462180425268354 1
genomeend 57
/*-------------------------------------------------------------------*/
/* Species # 028         : (size= 006) (AvfFit= 9.591) (Age= 55.000)  */
/*-------------------------------------------------------------------*/
/* Organism # 058 Fitness:  0.000 Error:  0.000                      */
genomestart  58
trait 1 0.13093920309192858 0.0 0.0 0.0 0.19111839456470975 0.28726061368234423 0.07830348960210914 0.02333673048740153 
trait 2 0.0 0.18480954440777242 0.32676428020250703 1.208902446808728 0.0 1.6599974758371507 0.0 0.0 
trait 3 0.21796875 0.0 0.8818461254656146 0.6310454441604965 0.390399328220962 0.16053250538263536 0.007559436956975363 0.23513440593470974 
node 1 3 1 1
node 2 1 1 1
node 3 1 1 3
node 4 1 0 2
node 9 1 0 0
node 10 1 0 0
node 26 2 0 0
node 63 1 0 0
node 196 1 0 0
node 200 1 0 0
node 206 1 0 0
gene  1 1 4 -2.5152678995930016 0 1.0 -2.5152678995930016 1
gene  2 2 4 7.313579793626778 0 2.0 7.313579793626778 1
gene  3 3 4 0.5690549757741352 0 3.0 0.5690549757741352 1
gene  1 1 9 -2.3101018990796596 0 12.0 -2.3101018990796596 1
gene  1 9 4 0.23100124210747808 0 13.0 0.23100124210747808 1
gene  1 1 10 7.714163184008708 0 14.0 7.714163184008708 1
gene  3 10 4 13.908571802456274 0 15.0 13.908571802456274 1
gene  3 2 10 -11.598590963169306 0 20.0 -11.598590963169306 1
gene  1 3 9 -3.4384421325862524 0 49.0 -3.4384421325862524 1
gene  1 3 10 1.3069451704458035 0 65.0 1.3069451704458035 1
gene  1 1 26 -11.037938113464644 0 76.0 -11.037938113464644 1
gene  1 26 4 -0.1387536104645548 0 77.0 -0.1387536104645548 1
gene  1 10 26 -6.60778900196842 0 223.0 -6.60778900196842 1
gene  1 26 9 0.02137890607336068 0 240.0 0.02137890607336068 1
gene  1 1 63 3.325557109299135 0 269.0 3.325557109299135 1
gene  1 63 4 -5.849577687312345 0 270.0 -5.849577687312345 1
gene  1 9 63 -2.9734489770238457 0 531.0 -2.9734489770238457 1
gene  3 26 63 4.272784268161857 0 569.0 4.272784268161857 0
gene  1 3 26 0.3189554333872364 0 636.0 0.3189554333872364 1
gene  3 2 196 9.394119095542585 0 886.0 9.394119095542585 1
gene  3 196 10 -11.29031787421565 0 887.0 -11.29031787421565 1
gene  3 26 200 8.364974037407457 0 904.0 8.364974037407457 1
gene  3 200 63 -2.4966362234453 0 905.0 -2.4966362234453 1
gene  1 10 206 -3.5860174973269987 0 929.0 -3.5860174973269987 1
gene  1 206 26 1.3830830977330746 0 930.0 1.3830830977330746 1
gene  1 206 9 1.9761156740282375 0 1095.0 1.9761156740282375 1
gene  1 3 200 0.32115697837133667 0 1187.0 0.32115697837133667 1
genomeend 58
/* Organism # 059 Fitness:  0.000 Error:  0.000                      */
genomestart  59
trait 1 0.13093920309192858 0.0 0.0 0.0 0.19111839456470975 0.28726061368234423 0.07830348960210914 0.02333673048740153 
trait 2 0.0 0.18480954440777242 0.32676428020250703 1.208902446808728 0.0 1.6599974758371507 0.0 0.0 
trait 3 0.21796875 0.0 0.8818461254656146 0.6310454441604965 0.390399328220962 0.16053250538263536 0.007559436956975363 0.23513440593470974 
node 1 3 1 1
node 2 1 1 1
node 3 1 1 3
node 4 1 0 2
node 9 1 0 0
node 10 1 0 0
node 26 2 0 0
node 63 1 0 0
node 196 1 0 0
node 200 1 0 0
node 206 1 0 0
gene  1 1 4 0.2432681707036477 0 1.0 0.2432681707036477 1
gene  2 2 4 4.822086470198872 0 2.0 4.822086470198872 1
gene  3 3 4 -1.68964307581685 0 3.0 -1.68964307581685 1
gene  1 1 9 -0.7715774777983224 0 12.0 -0.7715774777983224 1
gene  1 9 4 -1.5902302677549063 0 13.0 -1.5902302677549063 1
gene  1 1 10 9.065629718965685 0 14.0 9.065629718965685 1
gene  3 10 4 12.864687113699478 0 15.0 12.864687113699478 1
gene  3 2 10 -12.17222484158096 0 20.0 -12.17222484158096 1
gene  1 3 9 -0.22777968910748525 0 49.0 -0.22777968910748525 1
gene  1 3 10 0.8566481585299348 0 65.0 0.8566481585299348 1
gene  1 1 26 -10.037544975318683 0 76.0 -10.037544975318683 1
gene  1 26 4 4.3683595263084705 0 77.0 4.3683595263084705 1
gene  1 10 26 1.0325890747737787 0 223.0 1.0325890747737787 1
gene  1 26 9 1.871723111404791 0 240.0 1.871723111404791 1
gene  1 1 63 1.6561713776186728 0 269.0 1.6561713776186728 1
gene  1 63 4 -7.246280808392559 0 270.0 -7.246280808392559 1
gene  1 9 63 -1.0219305007923563 0 531.0 -1.0219305007923563 1
gene  3 26 63 -2.1021060993501797 0 569.0 -2.1021060993501797 0
gene  1 3 26 1.8530466455200822 0 636.0 1.8530466455200822 1
gene  3 2 196 8.1110275872972 0 886.0 8.1110275872972 1
gene  3 196 10 -9.119582638655778 0 887.0 -9.119582638655778 1
gene  3 26 200 5.260727453981456 0 904.0 5.260727453981456 1
gene  3 200 63 2.910105625786734 0 905.0 2.910105625786734 1
gene  1 10 206 -0.9393684414470425 0 929.0 -0.9393684414470425 1
gene  1 206 26 3.762065178331043 0 930.0 3.762065178331043 1
gene  1 206 9 3.200611559759467 0 1095.0 3.200611559759467 1
gene  1 3 200 -1.1950305482366026 0 1187.0 -1.1950305482366026 1
genomeend 59
/* Organism # 060 Fitness:  0.000 Error:  0.000                      */
genomestart  60
trait 1 0.13093920309192858 0.0 0.0 0.0 0.19111839456470975 0.28726061368234423 0.07830348960210914 0.02333673048740153 
trait 2 0.0 0.18480954440777242 0.32676428020250703 1.208902446808728 0.0 1.6599974758371507 0.0 0.0 
trait 3 0.21796875 0.0 0.8818461254656146 0.6310454441604965 0.390399328220962 0.16053250538263536 0.007559436956975363 0.23513440593470974 
node 1 3 1 1
node 2 1 1 1
node 3 1 1 3
node 4 1 0 2
node 9 1 0 0
node 10 1 0 0
node 26 2 0 0
node 63 1 0 0
node 196 1 0 0
node 200 1 0 0
node 206 1 0 0
gene  1 1 4 -1.6176300414603693 0 1.0 -1.6176300414603693 1
gene  2 2 4 7.3494334423193415 0 2.0 7.3494334423193415 1
gene  3 3 4 -3.1923358471732133 0 3.0 -3.1923358471732133 1
gene  1 1 9 1.0007675145157804 0 12.0 1.0007675145157804 1
gene  1 9 4 -0.4380879034412273 0 13.0 -0.4380879034412273 1
gene  1 1 10 10.484480926133168 0 14.0 10.484480926133168 1
gene  3 10 4 12.510248917305383 0 15.0 12.510248917305383 1
gene  3 2 10 -9.83878645948158 0 20.0 -9.83878645948158 1
gene  1 3 9 -4.188985157901592 0 49.0 -4.188985157901592 1
gene  1 3 10 2.432038162178283 0 65.0 2.432038162178283 1
gene  1 1 26 -9.242301591812394 0 76.0 -9.242301591812394 1
gene  1 26 4 0.8678944232908969 0 77.0 0.8678944232908969 1
gene  1 10 26 -3.404448954535723 0 223.0 -3.404448954535723 1
gene  1 26 9 3.706580228317409 0 240.0 3.706580228317409 1
gene  1 1 63 3.2704415307348267 0 269.0 3.2704415307348267 1
gene  1 63 4 -6.520883654972837 0 270.0 -6.520883654972837 1
gene  1 9 63 -4.545866130172844 0 531.0 -4.545866130172844 1
gene  3 26 63 4.989495486597616 0 569.0 4.989495486597616 0
gene  1 3 26 -0.6111822645744025 0 636.0 -0.6111822645744025 1
gene  3 2 196 7.124759688936742 0 886.0 7.124759688936742 1
gene  3 196 10 -7.684894306879202 0 887.0 -7.684894306879202 1
gene  3 26 200 6.188648313843855 0 904.0 6.188648313843855 1
gene  3 200 63 2.6098756460758654 0 905.0 2.6098756460758654 1
gene  1 10 206 -0.7406115509643703 0 929.0 -0.7406115509643703 1
gene  1 206 26 0.13079231694883253 0 930.0 0.13079231694883253 1
gene  1 206 9 2.0196516623870013 0 1095.0 2.0196516623870013 1
gene  1 3 200 0.7792975389502956 0 1187.0 0.7792975389502956 1
genomeend 60
/* Organism # 061 Fitness:  0.000 Error:  0.000                      */
genomestart  61
trait 1 0.13093920309192858 0.0 0.0 0.0 0.19111839456470975 0.28726061368234423 0.07830348960210914 0.02333673048740153 
trait 2 0.0 0.18480954440777242 0.32676428020250703 1.208902446808728 0.0 1.6599974758371507 0.0 0.0 
trait 3 0.21796875 0.0 0.8818461254656146 0.6310454441604965 0.390399328220962 0.16053250538263536 0.007559436956975363 0.23513440593470974 
node 1 3 1 1
node 2 1 1 1
node 3 1 1 3
node 4 1 0 2
node 9 1 0 0
node 10 1 0 0
node 26 2 0 0
node 63 1 0 0
node 196 1 0 0
node 200 1 0 0
node 206 1 0 0
node 311 1 0 0
gene  1 1 4 -1.4750258993028187 0 1.0 -1.4750258993028187 1
gene  2 2 4 6.085723748768101 0 2.0 6.085723748768101 1
gene  3 3 4 -0.6141620476382246 0 3.0 -0.6141620476382246 1
gene  1 1 9 1.9248829390484605 0 12.0 1.9248829390484605 1
gene  1 9 4 -1.8089438153192474 0 13.0 -1.8089438153192474 1
gene  1 1 10 11.434897475144382 0 14.0 11.434897475144382 1
gene  3 10 4 14.587998248185045 0 15.0 14.587998248185045 1
gene  3 2 10 -12.565691936202898 0 20.0 -12.565691936202898 1
gene  1 3 9 -5.581506345596004 0 49.0 -5.581506345596004 1
gene  1 3 10 1.645113341337453 0 65.0 1.645113341337453 1
gene  1 1 26 -13.300821530122905 0 76.0 -13.300821530122905 1
gene  1 26 4 1.028465662570707 0 77.0 1.028465662570707 1
gene  1 10 26 -1.3452519943612964 0 223.0 -1.3452519943612964 1
gene  1 26 9 5.958051307105521 0 240.0 5.958051307105521 1
gene  1 1 63 -1.8514545547903265 0 269.0 -1.8514545547903265 1
gene  1 63 4 -6.441276920382556 0 270.0 -6.441276920382556 1
gene  1 9 63 -3.3286754912465275 0 531.0 -3.3286754912465275 1
gene  3 26 63 4.756648754172595 0 569.0 4.756648754172595 0
gene  1 3 26 1.626845016665397 0 636.0 1.626845016665397 1
gene  3 2 196 5.395581415341413 0 886.0 5.395581415341413 1
gene  3 196 10 -7.999820720654792 0 887.0 -7.999820720654792 1
gene  3 26 200 4.57179182552745 0 904.0 4.57179182552745 1
gene  3 200 63 4.727478239097459 0 905.0 4.727478239097459 0
gene  1 10 206 9.328028010063223 0 929.0 9.328028010063223 1
gene  1 206 26 1.2255456430705598 0 930.0 1.2255456430705598 1
gene  1 206 9 -0.156789701570047 0 1095.0 -0.156789701570047 1
gene  1 3 200 1.7807959039475212 0 1187.0 1.7807959039475212 1
gene  3 200 311 1.3811662827643518 0 1366.0 1.3811662827643518 1
gene  3 311 63 1.4681810197011567 0 1367.0 1.4681810197011567 1
genomeend 61
/* Organism # 062 Fitness:  0.000 Error:  0.000                      */
genomestart  62
trait 1 0.13093920309192858 0.0 0.0 0.0 0.19111839456470975 0.28726061368234423 0.07830348960210914 0.02333673048740153 
trait 2 0.0 0.18480954440777242 0.32676428020250703 1.208902446808728 0.0 1.6599974758371507 0.0 0.0 
trait 3 0.21796875 0.0 0.8818461254656146 0.6310454441604965 0.390399328220962 0.16053250538263536 0.007559436956975363 0.23513440593470974 
node 1 3 1 1
node 2 1 1 1
node 3 1 1 3
node 4 1 0 2
node 9 1 0 0
node 10 1 0 0
node 26 2 0 0
node 63 1 0 0
node 196 1 0 0
node 200 1 0 0
node 206 1 0 0
node 311 1 0 0
gene  1 1 4 -4.866555164086333 0 1.0 -4.866555164086333 1
gene  2 2 4 2.3880222207966892 0 2.0 2.3880222207966892 1
gene  3 3 4 -1.991682511113659 0 3.0 -1.991682511113659 1
gene  1 1 9 3.2934153410734073 0 12.0 3.2934153410734073 1
gene  1 9 4 1.8675042800309738 0 13.0 1.8675042800309738 1
gene  1 1 10 10.359546069863907 0 14.0 10.359546069863907 1
gene  3 10 4 14.573787339298907 0 15.0 14.573787339298907 1
gene  3 2 10 -12.271183732491135 0 20.0 -12.271183732491135 1
gene  1 3 9 -5.619491145089543 0 49.0 -5.619491145089543 1
gene  1 3 10 1.5577603966669376 0 65.0 1.5577603966669376 1
gene  1 1 26 -13.610514809143677 0 76.0 -13.610514809143677 1
gene  1 26 4 2.0814484970962646 0 77.0 2.0814484970962646 1
gene  1 10 26 -7.808760541433992 0 223.0 -7.808760541433992 1
gene  1 26 9 4.728402382417603 0 240.0 4.728402382417603 1
gene  1 1 63 2.2021127201993345 0 269.0 2.2021127201993345 1
gene  1 63 4 -3.1984670230549628 0 270.0 -3.1984670230549628 1
gene  1 9 63 -4.002882967612087 0 531.0 -4.002882967612087 1
gene  3 26 63 8.41886913551203 0 569.0 8.41886913551203 0
gene  1 3 26 1.2147616112755304 0 636.0 1.2147616112755304 1
gene  3 2 196 9.077304407295717 0 886.0 9.077304407295717 1
gene  3 196 10 -9.90048432909487 0 887.0 -9.90048432909487 1
gene  3 26 200 8.653533125260822 0 904.0 8.653533125260822 1
gene  3 200 63 3.712913196699607 0 905.0 3.712913196699607 0
gene  1 10 206 6.758553593746695 0 929.0 6.758553593746695 1
gene  1 206 26 2.9611484454501635 0 930.0 2.9611484454501635 1
gene  1 206 9 -0.3458355215736316 0 1095.0 -0.3458355215736316 1
gene  1 3 200 1.7807959039475212 0 1187.0 1.7807959039475212 1
gene  3 200 311 1.8937952672709226 0 1366.0 1.8937952672709226 1
gene  3 311 63 -0.6591478894079505 0 1367.0 -0.6591478894079505 1
genomeend 62
/* Organism # 063 Fitness:  0.000 Error:  0.000                      */
genomestart  63
trait 1 0.2153836741563366 0.0 0.09200284365178096 0.3398470926742679 0.7207833642225796 0.14814052423816487 0.29490072567698566 0.24323957909956287 
trait 2 0.36593267812437114 0.45711559517409844 0.0 0.022001117432329798 0.011698058364696173 0.6541988230633291 0.0 0.1598495856571473 
trait 3 0.108984375 0.0 0.4409230627328073 0.5807970852078701 0.729556277409011 0.2113036841277711 0.0037797184784876814 0.11756720296735487 
node 1 3 1 1
node 2 2 1 1
node 3 1 1 3
node 4 1 0 2
node 9 1 0 0
node 10 3 0 0
node 26 2 0 0
node 63 1 0 0
node 196 1 0 0
node 200 1 0 0
node 206 1 0 0
gene  1 1 4 -3.032368078967129 0 1.0 -3.032368078967129 1
gene  2 2 4 4.196049914977085 0 2.0 4.196049914977085 0
gene  1 3 4 3.4737747144011446 0 3.0 3.4737747144011446 1
gene  1 1 9 -0.7715774777983224 0 12.0 -0.7715774777983224 1
gene  1 9 4 -1.804099361436629 0 13.0 -1.804099361436629 1
gene  3 1 10 6.434140133763995 0 14.0 6.434140133763995 1
gene  1 10 4 -14.523861743838086 0 15.0 -14.523861743838086 1
gene  3 2 10 -11.125533428412295 0 20.0 -11.125533428412295 1
gene  1 3 9 -2.1705537403403374 0 49.0 -2.1705537403403374 1
gene  1 3 10 1.279087864024588 0 65.0 1.279087864024588 1
gene  1 1 26 -10.545689889459073 0 76.0 -10.545689889459073 1
gene  1 26 4 2.0951176481418354 0 77.0 2.0951176481418354 1
gene  1 10 26 -5.047854064685739 0 223.0 -5.047854064685739 1
gene  1 26 9 2.4215572341952427 0 240.0 2.4215572341952427 1
gene  1 1 63 2.41479274223801 0 269.0 2.41479274223801 1
gene  1 63 4 -7.246280808392559 0 270.0 -7.246280808392559 1
gene  1 9 63 -3.0628199736799626 0 531.0 -3.0628199736799626 1
gene  3 26 63 5.433586281517526 0 569.0 5.433586281517526 0
gene  1 3 26 1.7930792569630964 0 636.0 1.7930792569630964 1
gene  3 2 196 7.128144615751952 0 886.0 7.128144615751952 1
gene  3 196 10 -9.503425402050336 0 887.0 -9.503425402050336 1
gene  3 26 200 7.0256742064707565 0 904.0 7.0256742064707565 1
gene  3 200 63 2.6098756460758654 0 905.0 2.6098756460758654 1
gene  1 10 206 -1.945314899127114 0 929.0 -1.945314899127114 1
gene  1 206 26 1.3830830977330746 0 930.0 1.3830830977330746 1
gene  1 206 9 2.0196516623870013 0 1095.0 2.0196516623870013 1
gene  1 3 200 0.32115697837133667 0 1187.0 0.32115697837133667 1
genomeend 63
/*-------------------------------------------------------------------*/
